#Parameter# /vanilla-lstm-builder/_0 {128,32} 65537 ZERO_GRAD
+5.86478412e-01 +5.42845666e-01 -1.51335135e-01 -1.71580687e-01 +5.84590018e-01 -6.66866183e-01 +2.45483309e-01 +5.18369794e-01 +1.74866557e-01 +2.60599107e-01 +5.77873588e-01 -5.93505986e-03 +2.67779976e-01 +3.48743886e-01 +1.20410830e-01 +2.31643707e-01 -4.48788643e-01 +8.12189162e-01 +8.00434947e-01 +1.36898890e-01 +1.91806003e-01 +5.28280079e-01 +5.54839015e-01 -6.96828067e-02 -1.71845868e-01 +2.65607536e-01 +9.43140313e-02 +7.87610471e-01 -1.80231184e-01 +1.84428439e-01 -2.74466187e-01 -2.27100059e-01 -1.15880348e-01 -1.04186736e-01 +2.51539081e-01 +8.05443108e-01 +6.34687006e-01 +2.54621655e-01 +1.96244925e-01 -1.21099925e+00 +7.44653568e-02 +4.54542994e-01 -1.00318253e+00 -2.87346691e-01 +2.50198007e-01 +3.08250338e-01 -4.72571999e-01 -1.52351037e-01 -5.36036372e-01 +6.78284883e-01 +3.49609077e-01 +5.03997982e-01 -1.76872551e-01 -4.21201557e-01 -4.30278778e-01 +3.26472104e-01 +6.14141703e-01 +5.91147304e-01 +3.66264760e-01 +9.64800477e-01 -1.25526398e-01 -4.85672569e-03 +2.57690698e-01 -6.34345591e-01 +3.70491385e-01 -7.34388351e-01 +1.06423125e-01 +1.08767712e+00 +8.87729228e-01 +2.22503543e-02 -5.14953911e-01 +1.30331879e-02 -4.28716093e-01 +1.28178060e-01 -4.56183583e-01 +1.55390622e-02 +5.51498175e-01 +1.58669934e-01 -3.96668166e-01 -7.04213738e-01 -6.38113141e-01 -5.26806749e-02 +5.98187506e-01 +5.05677640e-01 -2.88552254e-01 +4.12730873e-01 +2.50156950e-02 +8.36841822e-01 +1.93274647e-01 +3.36620927e-01 +1.35845870e-01 -1.76382557e-01 +4.72057685e-02 -2.00116426e-01 +3.09739679e-01 -7.41100758e-02 -2.60534346e-01 -2.82061577e-01 +2.85502434e-01 +1.58982705e-02 +1.25974461e-01 +6.18612543e-02 -9.37059745e-02 +2.14076966e-01 -4.12577361e-01 -1.12536319e-01 -2.28735395e-02 +2.15738237e-01 +5.60997128e-01 +4.63938236e-01 -9.88367274e-02 -7.32953548e-02 +3.57095927e-01 -2.86798984e-01 +1.97286710e-01 -3.80119145e-01 -6.51800931e-01 +3.17517430e-01 +4.89831001e-01 -2.72028834e-01 -1.07082948e-01 +2.35219002e-01 -9.00316313e-02 +3.63702536e-01 -4.61124748e-01 -3.14620525e-01 -5.54911196e-01 +6.76012278e-01 +1.97691217e-01 -1.82604685e-01 +8.14993382e-01 -2.63143063e-01 +3.62569183e-01 -2.61656135e-01 -1.79834828e-01 -2.93316692e-02 +2.99197167e-01 +7.94172347e-01 +4.10190046e-01 +1.12290889e-01 +1.83540553e-01 -2.77671009e-01 +5.64783812e-02 -3.50728959e-01 +1.71215564e-03 +4.70270604e-01 +1.01511419e-01 +2.47454092e-01 -2.95836478e-01 +1.75909668e-01 +1.36588126e-01 -7.78489351e-01 -2.13337928e-01 +1.41342252e-01 -2.52967149e-01 +1.41799495e-01 -3.49613249e-01 -2.12899774e-01 -1.06592856e-01 +9.82150435e-02 -7.82272667e-02 -4.72619325e-01 -2.15509802e-01 -3.32508415e-01 +2.53274530e-01 -1.96964562e-01 -7.99088240e-01 +3.79214436e-01 -2.33913675e-01 -5.56154437e-02 +1.17239505e-01 -2.87640989e-01 -8.42159688e-01 -5.05208671e-01 -8.60335082e-02 +8.40689838e-01 +2.33757064e-01 +2.25646012e-02 -4.76747870e-01 +4.81036097e-01 +5.20517886e-01 -6.28267169e-01 -9.42069888e-01 -6.12404287e-01 +9.15134400e-02 +4.72902432e-02 -9.35135007e-01 -1.71085566e-01 -3.78718197e-01 +7.96346664e-02 -3.52528811e-01 -1.13541856e-01 +8.03914309e-01 -8.45839083e-01 +3.72580647e-01 -3.25328708e-01 +4.44638655e-02 -3.92201334e-01 -3.93948704e-01 -1.95789129e-01 -2.16449779e-02 +2.11237427e-02 +5.27239799e-01 +7.71763504e-01 +7.10441113e-01 -1.77100394e-02 +6.39556944e-01 +2.82671839e-01 +9.67167318e-02 +6.18490092e-02 +1.40906060e-02 +2.89852619e-01 -3.33076179e-01 +3.61363590e-01 +7.23629832e-01 -9.72975373e-01 +4.37297583e-01 -2.33599961e-01 -4.99792099e-01 +1.98023275e-01 -2.77860314e-01 -2.45416149e-01 -4.13077384e-01 +2.94374436e-01 -4.54230070e-01 -3.20422173e-01 +5.54930940e-02 -2.23762944e-01 -1.34207457e-01 -5.12358427e-01 -1.90253202e-02 +2.90031940e-01 +2.80464053e-01 -1.73572004e-01 -3.56696934e-01 -3.86108488e-01 +1.44986913e-01 -1.54214710e-01 -4.53405887e-01 -2.82344252e-01 +4.37746271e-02 -4.24964905e-01 -4.34964240e-01 +2.61202693e-01 +1.43494755e-01 +3.34690034e-01 +5.56932151e-01 -5.51012047e-02 +1.97821498e-01 +3.43106896e-01 +9.56016332e-02 +2.46863797e-01 -2.17286497e-01 -2.48286664e-01 +1.14565548e-02 +1.75055146e-01 +5.76617837e-01 -2.18633622e-01 -3.59224349e-01 -1.02993958e-01 +5.15520692e-01 -1.40694067e-01 -9.64367017e-02 +3.77910465e-01 -6.41982108e-02 -1.70253608e-02 -3.44458334e-02 -1.91526577e-01 +1.21515445e-01 -2.88820416e-01 +4.48550701e-01 +2.60985404e-01 -6.48397505e-01 +8.05147290e-02 +4.05982733e-01 +1.66041166e-01 +2.62872607e-01 +1.33703530e-01 +5.19351065e-01 +3.81138846e-02 -1.75158337e-01 -2.99214005e-01 -1.42721459e-01 +6.91892564e-01 +1.72952950e-01 +9.11514089e-02 +5.23915589e-01 -1.72726095e-01 +2.48539746e-01 -4.30144846e-01 -4.13142843e-04 +7.31608748e-01 +1.73744991e-01 +6.27704501e-01 -4.71506685e-01 -4.26591843e-01 -1.52110845e-01 -1.46159023e-01 +1.02278256e+00 -2.75670290e-01 +1.65455416e-01 +2.99226314e-01 +3.30281526e-01 +4.36467499e-01 +3.49059522e-01 +4.21353310e-01 +4.82535571e-01 +1.04334831e+00 +3.03482175e-01 +9.54474807e-02 +1.28670512e-02 -1.47396371e-01 -1.11946858e-01 +3.27571601e-01 +1.34232789e-01 +4.73231345e-01 -7.39075184e-01 -9.68946202e-04 -2.79616177e-01 -1.10970104e+00 +4.67854619e-01 -3.15891832e-01 -3.81234139e-01 +8.04829970e-02 +5.40564954e-01 +1.30006388e-01 -7.12332726e-01 +8.69511008e-01 -1.46998212e-01 +2.36632213e-01 -2.89950460e-01 -6.24587908e-02 +4.71163958e-01 +5.92373252e-01 +6.79035842e-01 +1.71952367e-01 -6.94414377e-01 +5.12249231e-01 +1.11832416e+00 +8.42858493e-01 -6.91037923e-02 +2.74590075e-01 +7.67812192e-01 +3.46132696e-01 +5.96796572e-01 +1.16917677e-01 -1.79197907e-01 +7.70911574e-01 -4.98798899e-02 -8.02209795e-01 -7.12420121e-02 -7.05086350e-01 +6.90419227e-03 -1.56856403e-01 +1.09893896e-01 +2.70599097e-01 -1.02892280e-01 -2.80603111e-01 -3.44112962e-01 -7.72693276e-01 -8.82643461e-02 +1.11462764e-01 -2.80857980e-01 +3.25731039e-01 -3.14673752e-01 +1.80353776e-01 +3.68889235e-02 -1.71804950e-02 +1.95861161e-01 -2.33055487e-01 -7.50085860e-02 +2.73609702e-02 +5.16724408e-01 -2.18196869e-01 +5.52651584e-02 -2.69307256e-01 -1.09184720e-02 +1.76392078e-01 +7.74333596e-01 +6.65756240e-02 -5.99064291e-01 -2.27691606e-01 -2.69091338e-01 -3.33731383e-01 -1.94742069e-01 +1.11266144e-01 +8.13604668e-02 -4.05642003e-01 -3.79628837e-01 +1.91868711e-02 +1.63466930e-01 +1.69763193e-01 +2.21244410e-01 -1.48709908e-01 +5.31660080e-01 -5.85644087e-03 -1.85784414e-01 -4.36975546e-02 -2.63923347e-01 +4.25531387e-01 +3.92337084e-01 +3.67890537e-01 -2.69401014e-01 +4.76017505e-01 -2.28969470e-01 +1.63706198e-01 -2.98272878e-01 -2.04004303e-01 -2.27552205e-01 -2.73707598e-01 -4.01211232e-01 -6.36158645e-01 -2.05654949e-01 -2.75934786e-01 -5.34355283e-01 -1.38302788e-01 +4.26551759e-01 +6.42952770e-02 -2.99613714e-01 -5.68796992e-01 +8.22684824e-01 -7.28606582e-02 +2.57766306e-01 +5.46886265e-01 +4.39212412e-01 +4.44190174e-01 +3.26710701e-01 -4.32751596e-01 -7.38521576e-01 +8.72239694e-02 +1.10871792e-02 -1.48801859e-02 -1.12121664e-01 -1.05466950e+00 -3.74325424e-01 -1.92637090e-02 -5.71931124e-01 +1.58434823e-01 -5.45072496e-01 -2.78308570e-01 +3.36307079e-01 -2.80405462e-01 -9.91249308e-02 -2.23120287e-01 -5.52299619e-01 +8.49191427e-01 +5.47520220e-02 +3.78912598e-01 -9.75093767e-02 +9.00339365e-01 +2.72968113e-01 +2.72572130e-01 -3.26251774e-03 -7.45387673e-02 +7.07515121e-01 +9.63858962e-02 +4.29328263e-01 -4.93056662e-02 +7.99113333e-01 -2.94498146e-01 -8.19632173e-01 -5.45945130e-02 -2.31245473e-01 +1.51676446e-01 +1.17770493e+00 -8.25247765e-01 -9.56980944e-01 +6.33716881e-01 -8.80882144e-01 -2.77990043e-01 -1.78098008e-01 -7.23131657e-01 +5.54359145e-02 +1.20706491e-01 -1.62398852e-02 -4.78607982e-01 -2.24085569e-01 +4.88583088e-01 -2.31802538e-01 -3.07685733e-01 +8.12279433e-02 +1.36532754e-01 +3.06565195e-01 +5.23469597e-02 -5.67233086e-01 +3.10268879e-01 -3.00317466e-01 -2.14644745e-01 +3.74411672e-01 -6.57183025e-03 +3.33743691e-01 +4.84953970e-01 +3.22540224e-01 -8.77107382e-02 +2.18648359e-01 +8.87792110e-02 +3.64962310e-01 +2.29371727e-01 +3.43593866e-01 +3.63172770e-01 +3.94975424e-01 +3.72031927e-01 -4.08454649e-02 -2.13953018e-01 -3.29842269e-01 +4.19146836e-01 -5.08374214e-01 -6.24395162e-02 -2.26493210e-01 -3.59947413e-01 -1.07383125e-01 +7.59542510e-02 +1.40281409e-01 -6.02342904e-01 +2.37339526e-01 -4.87971045e-02 +2.80551940e-01 +1.52567560e-02 -4.00951535e-01 +2.95941323e-01 -9.53218490e-02 -2.47296035e-01 -2.55860627e-01 +4.46774453e-01 +1.92617685e-01 -3.88758518e-02 +5.59349954e-01 -2.09108382e-01 +3.13121110e-01 +4.98295963e-01 +3.27425122e-01 -1.41165569e-01 -1.18971959e-01 +1.53747231e-01 -3.39486390e-01 +2.99407631e-01 -4.67653751e-01 -3.96181852e-01 -1.79020092e-01 +4.97485250e-01 +2.74364829e-01 +3.62149417e-01 +1.34118706e-01 +3.38283181e-01 +3.63712698e-01 -7.71632865e-02 -4.92298633e-01 -9.73530948e-01 -6.99778914e-01 -1.16900468e+00 +1.61204785e-01 -2.44432345e-01 +2.62396365e-01 -1.40639797e-01 +6.20592535e-01 -1.34048373e-01 -1.10068679e+00 +2.18111426e-02 -6.63849652e-01 +8.46074700e-01 +5.89391232e-01 -2.77572244e-01 +1.12422638e-01 -4.60586876e-01 +8.54471803e-01 -7.91798890e-01 -8.27721357e-01 -2.36309394e-01 -8.60451043e-01 -2.55797476e-01 -1.60027012e-01 +2.85539985e-01 +5.83127618e-01 -5.64951152e-02 -2.74685889e-01 +1.03151621e-02 +2.48190850e-01 +2.95446336e-01 -2.54817128e-01 -9.71449316e-01 -6.35104418e-01 -7.14974880e-01 -7.34423757e-01 +5.30662477e-01 +2.11697280e-01 -1.20506100e-01 +8.03158283e-02 +6.12478256e-01 -2.04795241e-01 +4.72563952e-01 +9.46630776e-01 +9.47688103e-01 +2.51274467e-01 +1.07362258e+00 +7.16037750e-01 +4.27463979e-01 +1.85456678e-01 +4.71908957e-01 -5.03398478e-01 -6.01206362e-01 -3.05805564e-01 -5.74047491e-02 -6.91819549e-01 +2.62806296e-01 -2.91372746e-01 -2.89731510e-02 -7.30320036e-01 +8.18829015e-02 -9.86137241e-02 +3.69286209e-01 +1.04207063e+00 +2.07912877e-01 -4.82111186e-01 -2.55016118e-01 -7.08104074e-02 -9.78339091e-02 +3.49339135e-02 -2.15252966e-01 -1.03972636e-01 +2.44343251e-01 -3.25055629e-01 -3.08652997e-01 +3.06659579e-01 -2.88459808e-01 +1.02094114e+00 +1.47869214e-01 +3.20110321e-01 -5.24700940e-01 +7.45882094e-01 +4.58130062e-01 -2.63542626e-02 +4.18603569e-01 -6.25660568e-02 -1.63067415e-01 -1.21034667e-01 +1.65620893e-01 -5.11675239e-01 -4.88096356e-01 +3.10776532e-01 +3.52511525e-01 +3.33945490e-02 +2.81966895e-01 +6.37254179e-01 -2.30252059e-04 +2.61339694e-01 -8.25144649e-02 +1.17862850e-01 +1.74434543e-01 -1.21700980e-01 +6.79930389e-01 +8.26647654e-02 +5.63905597e-01 -2.82229900e-01 -3.24173957e-01 -5.59416771e-01 -2.75809228e-01 -3.35729450e-01 +5.62961340e-01 -2.98684984e-01 +1.01590805e-01 -3.39578420e-01 -2.68749535e-01 -4.86154050e-01 -8.83967057e-02 -2.65239701e-02 +1.27034649e-01 -6.92425549e-01 +3.65515679e-01 -1.51412427e-01 +4.91397798e-01 -5.88070869e-01 +1.70343772e-01 -2.77913004e-01 -9.96729732e-02 -2.20520467e-01 -5.83449483e-01 +4.89334278e-02 -1.16838682e+00 -7.13473916e-01 +8.33643004e-02 +1.23773254e-01 -2.24378183e-01 -1.48423001e-01 -1.09430477e-01 -2.65264273e-01 -4.91870791e-01 -6.44588292e-01 +1.83509663e-01 -3.36137056e-01 -5.83223999e-01 -3.89466770e-02 -1.08237374e+00 -3.47052813e-01 +7.37120658e-02 -1.80522263e-01 -4.16844457e-01 -5.03199577e-01 -8.87980878e-01 -5.31978548e-01 -1.60223320e-02 +5.72423004e-02 +4.38800693e-01 -4.25088912e-01 +3.84060115e-01 -3.18484515e-01 -6.44183397e-01 +4.34654742e-01 -2.98660278e-01 +2.97974914e-01 -8.69969904e-01 -4.62734103e-01 +1.25668570e-01 -1.53723821e-01 -2.55847722e-02 -1.78068951e-01 +4.88502949e-01 +5.62555552e-01 -1.80487975e-01 -1.34052232e-01 -7.28926361e-02 -1.66496158e-01 -1.04299039e-01 -1.22441985e-01 +1.16755888e-01 -6.09834731e-01 +3.65161389e-01 +6.36986017e-01 -9.19231296e-01 +2.10402250e-01 -7.11541116e-01 -6.56452715e-01 +1.55687518e-02 +1.35388225e-01 +8.56276080e-02 -3.37620109e-01 +2.35211357e-01 -2.74780858e-02 +4.62322868e-02 -9.18010250e-02 +1.19337393e-02 +1.01035899e-02 +2.49033540e-01 +7.31728971e-02 +1.25125319e-01 +4.46131006e-02 +2.78982013e-01 -2.88635790e-01 +5.98845407e-02 +8.94954652e-02 -5.34116089e-01 +1.25286609e-01 -8.15098360e-02 -7.56774098e-03 +2.91429758e-01 +2.06898674e-01 +2.00089902e-01 -3.84728462e-01 +3.53630930e-01 +2.88184315e-01 -1.40083924e-01 -2.58092970e-01 -2.27504492e-01 +4.55790758e-01 -3.22538853e-01 +9.87579599e-02 -1.04170032e-01 -1.60316572e-01 +1.13341069e+00 -1.32768333e-01 +1.37076631e-01 +1.41283302e-02 -4.75939929e-01 -3.48403044e-02 -5.88783860e-01 +5.39674520e-01 -2.23310888e-01 -2.55515128e-01 +2.18125984e-01 +2.26619929e-01 -5.19199789e-01 +1.89528555e-01 +1.86211973e-01 +7.13854879e-02 +1.23896070e-01 +4.18256894e-02 -1.07185297e-01 -3.27354521e-01 +1.47450700e-01 -1.70388669e-01 -1.51990771e-01 -3.97424579e-01 -2.84518152e-01 +4.77540158e-02 +3.53428453e-01 -9.94408205e-02 +6.66503981e-02 +7.54150078e-02 -5.02642512e-01 +2.64228672e-01 -3.09415132e-01 -4.42635447e-01 +1.90011710e-02 -5.26977122e-01 +2.59689391e-01 -4.70703930e-01 -1.66978195e-01 +4.78028566e-01 +4.62585203e-02 +1.57194555e-01 +4.18306142e-01 -6.47631466e-01 +6.19012713e-01 -9.41769481e-01 +3.83540839e-01 -8.35190952e-01 +5.66783130e-01 +3.71326029e-01 +2.28273585e-01 -2.96188533e-01 -2.17620850e-01 +5.36685169e-01 -7.12683558e-01 -3.09764057e-01 -6.62189350e-02 +6.44272089e-01 +3.12180728e-01 -6.35188818e-01 -1.14891961e-01 +1.46322817e-01 +2.51054466e-01 -1.35794848e-01 +1.29260886e+00 +5.05338728e-01 -3.33391011e-01 +5.17589003e-02 -4.14340347e-01 -2.39591718e-01 -5.53875864e-01 +1.70932144e-01 -5.00944078e-01 -3.16635147e-02 +6.16663933e-01 +5.24345875e-01 -1.08487412e-01 -2.97373563e-01 -3.79472554e-01 -7.04138100e-01 +3.87139738e-01 +4.16662276e-01 -1.95596233e-01 -3.65384161e-01 +2.73291767e-03 +4.93231714e-01 +2.37758696e-01 -4.94850755e-01 -1.44178614e-01 -3.97046953e-02 +3.70627567e-02 -2.51952529e-01 -1.06799446e-01 -6.09397471e-01 -1.74387470e-01 +3.74271482e-01 +8.32283795e-01 -2.54417956e-01 -2.71298647e-01 +5.83866715e-01 -1.52884990e-01 +4.12711531e-01 -7.68281296e-02 +2.18634486e-01 +8.07280719e-01 +2.30150476e-01 -4.30002183e-01 +4.37156558e-01 +1.10788770e-01 +1.88891783e-01 +3.77313226e-01 +2.70522535e-01 -4.10498530e-01 -2.35353857e-01 -5.67249119e-01 -1.09343871e-01 +3.13686371e-01 -1.69561788e-01 +6.32808805e-01 +1.16035253e-01 +3.86492908e-01 -7.86701068e-02 -2.15377778e-01 -9.25786197e-01 +5.21113098e-01 +5.44990003e-01 +5.39002009e-02 +5.18789649e-01 -3.19478303e-01 -6.50329947e-01 -2.59010226e-01 +4.77020256e-02 -2.83875376e-01 +2.37954408e-01 -2.70893127e-01 -2.30099067e-01 -5.75176515e-02 -5.93293846e-01 -3.69714648e-01 +2.53958702e-01 -8.78241509e-02 +1.41572356e-01 -1.12383001e-01 +1.71975031e-01 -4.14684355e-01 -4.37611639e-02 -3.65583867e-01 -1.57453686e-01 +1.98501423e-01 +2.66111821e-01 +6.01316869e-01 +3.26363444e-02 +1.93244904e-01 +1.25993833e-01 -9.85185355e-02 +2.80540645e-01 +1.34856552e-01 +1.88394815e-01 -3.87834422e-02 +2.11039513e-01 -6.20877504e-01 +1.34806767e-01 -1.95176914e-01 -4.01690096e-01 +4.19802606e-01 -2.70232975e-01 +8.59731853e-01 -7.38959247e-03 -1.20846488e-01 -5.48039675e-01 -2.57250547e-01 -1.00133091e-01 -3.40697736e-01 -2.19696000e-01 -4.26145464e-01 -3.94758672e-01 -1.55773973e+00 -2.99118966e-01 +3.18957388e-01 -5.93984902e-01 -5.72656393e-01 -4.45562124e-01 -7.90304899e-01 -5.20449579e-01 -1.38833418e-01 -2.35199496e-01 +4.18056935e-01 -2.27022901e-01 -6.34815156e-01 -1.40428320e-02 -7.12579906e-01 +5.61444283e-01 +1.64301649e-01 -8.01443338e-01 +3.59122851e-03 -5.89738429e-01 +3.27041447e-01 -1.41911283e-01 +7.87231803e-01 -1.48395002e-01 +4.15918738e-01 -9.23430026e-01 -3.72938931e-01 +9.76342499e-01 -5.78649879e-01 -5.72744608e-01 -4.48861748e-01 +2.14062601e-01 -8.58262122e-01 -2.59034425e-01 -4.53332007e-01 -2.96963125e-01 -7.89406955e-01 +7.22977579e-01 +5.18128693e-01 -6.23200357e-01 +7.27490902e-01 -5.15695632e-01 +3.45574737e-01 -3.03404540e-01 -3.63961071e-01 +2.11583421e-01 -4.96904761e-01 +6.14734113e-01 -6.14130378e-01 -2.39482149e-01 +6.56183362e-02 +7.88875856e-03 +5.93606949e-01 -2.02164769e-01 +3.68651837e-01 +3.95519026e-02 +2.15177372e-01 +2.91088700e-01 -5.60152352e-01 -6.32077634e-01 -7.97273576e-01 +3.79007220e-01 +8.30924883e-02 +4.35125493e-02 +3.38204771e-01 -1.88094042e-02 -3.98025572e-01 +1.27586827e-01 +3.61777991e-01 +3.87373477e-01 +1.86060160e-01 +5.19317448e-01 +1.10815577e-01 -3.21459025e-01 +9.14813951e-02 -1.21154338e-01 +1.45838648e-01 -1.51702389e-01 +2.92336524e-01 +1.63744226e-01 -4.66909349e-01 -7.34675527e-02 -9.38799530e-02 -4.19835187e-02 +6.73060596e-01 -5.51831163e-02 +3.42493713e-01 -3.20295036e-01 -4.01309669e-01 -1.57634482e-01 -9.93691608e-02 -3.75235528e-01 -1.31353736e-01 -2.05891505e-01 -3.93736184e-01 +3.29335153e-01 -4.60554659e-01 +1.24369182e-01 -1.90693423e-01 -2.93701112e-01 -1.24567404e-01 -4.56336662e-02 -1.72300592e-01 -1.42488241e-01 +7.45698571e-01 +4.95549962e-02 +1.10329047e-01 +1.36603385e-01 -1.95325166e-01 +7.62614980e-02 +4.17144299e-02 +3.21119130e-01 +3.25549424e-01 +9.97927189e-02 -2.97817960e-02 +5.78831173e-02 -1.36850387e-01 -4.96777117e-01 +2.80182622e-03 -7.92104542e-01 +1.29107225e+00 -9.15265083e-01 -1.53462812e-01 +7.70337641e-01 +8.94075871e-01 +1.22291148e+00 +1.65753052e-01 +9.99285221e-01 -1.99143633e-01 +1.46651208e-01 -1.51109770e-01 +5.41011579e-02 +5.16551316e-01 +1.97364733e-01 +9.26855743e-01 +1.38826835e+00 -5.45339763e-01 -2.40088910e-01 -3.10721904e-01 +1.84453115e-01 -4.68145788e-01 -1.29535273e-01 -4.04332697e-01 -5.12199402e-01 -6.37340784e-01 +3.23604524e-01 +3.79708153e-03 -8.87728333e-02 -1.34662747e-01 -3.43884140e-01 -9.12583321e-02 +1.72213376e-01 +5.05683422e-01 +2.47104883e-01 -3.22863311e-01 -9.31979567e-02 +7.39265203e-01 +3.42914104e-01 -2.06875667e-01 +1.10459852e+00 +1.23581596e-01 -5.34833670e-01 +2.50303924e-01 +1.15267582e-01 +5.88236712e-02 +1.39421493e-01 -7.57639855e-02 +9.19733465e-01 -5.43477714e-01 +1.95338845e-01 -1.73503056e-01 +1.51572943e-01 +1.60592958e-01 +6.48598731e-01 -7.25150481e-02 -3.05231422e-01 -1.82734594e-01 +9.33744386e-02 -1.16328329e-01 -1.27796197e+00 -4.24334884e-01 -9.02235955e-02 -4.92168665e-01 -1.60014883e-01 +1.16260178e-01 -4.82175827e-01 +8.36210787e-01 -7.60771707e-02 -4.87400144e-01 -8.87170732e-01 +1.33042894e-02 -3.08789968e-01 +1.70444205e-01 -3.73921096e-02 +4.51718241e-01 +8.16778615e-02 +2.83342510e-01 +1.07311592e-01 -7.29225576e-01 -2.33753681e-01 +2.20455512e-01 +4.25803393e-01 -3.49936068e-01 +9.19640183e-01 -5.02539277e-01 +4.53192979e-01 +4.52772528e-01 +3.21638674e-01 -8.02909791e-01 -2.05090508e-01 +7.85073116e-02 -1.24092855e-01 -4.69091296e-01 -1.53850690e-01 -8.15662816e-02 +3.08072448e-01 +1.37985125e-02 -2.06431165e-01 -2.27760643e-01 +3.43353748e-01 +1.03598051e-01 +1.03718355e-01 +2.30373502e-01 -3.46843988e-01 +2.49212176e-01 -1.44257858e-01 +2.57136256e-01 -1.12662554e-01 +2.56389797e-01 -3.16745996e-01 -6.37741610e-02 -6.89147934e-02 +2.67441064e-01 -1.01625770e-02 +1.59090713e-01 -3.98496658e-01 -2.86537349e-01 -3.14346492e-01 +2.07950566e-02 -2.95545191e-01 -5.00156879e-01 +7.25683093e-01 +2.87955284e-01 -1.84406459e-01 -3.09060425e-01 +2.21375674e-01 +3.00906956e-01 +5.92648506e-01 +2.56343842e-01 +3.62530887e-01 +2.70508900e-02 +1.25848025e-01 -7.53348833e-03 -3.15372586e-01 -1.80455074e-01 +8.73481855e-02 -4.67182368e-01 +7.92966709e-02 -9.10415828e-01 -5.42344570e-01 -9.00424302e-01 -7.04342872e-02 +4.95414078e-01 +1.53855622e-01 -3.65981311e-02 -1.66106656e-01 -5.67662120e-01 -1.95946261e-01 -1.37542516e-01 -1.28338873e-01 +7.41382241e-01 -5.24104666e-03 +8.71155798e-01 -3.42735589e-01 +7.24845171e-01 -1.96659528e-02 -9.43527222e-02 +2.03220341e-02 +7.30879158e-02 +5.39470196e-01 -3.33433121e-01 +2.54660338e-01 +1.57422259e-01 +3.88883710e-01 -1.96518600e-01 -3.32156867e-01 +4.42374789e-04 -6.19182527e-01 -1.13317005e-01 +1.04684114e+00 -9.37607408e-01 -9.46424842e-01 +1.77857712e-01 -4.07182723e-01 -2.19013363e-01 -6.10409319e-01 -3.40411872e-01 +2.06882805e-02 +1.15607977e-01 +1.51212841e-01 -2.86062688e-01 -2.90794551e-01 +6.36546165e-02 +1.88147128e-02 -3.32169771e-01 -6.58331215e-02 -1.06404029e-01 -1.12829462e-01 +4.20248628e-01 +1.05657056e-01 +8.00482392e-01 +3.18668485e-01 -6.62342072e-01 +1.94777027e-01 +5.65421022e-02 +7.91777730e-01 +1.69080526e-01 -1.16107859e-01 +1.59050941e-01 +4.58284467e-01 +1.49099417e-02 -3.85032117e-01 +1.20707043e-01 +2.55602658e-01 +3.46418262e-01 -2.17078239e-01 +2.51498204e-02 +3.05970088e-02 -2.56957531e-01 -4.53331113e-01 +2.76149333e-01 -5.29792845e-01 -4.87303697e-02 +7.37986267e-02 -1.47486180e-01 -1.76389486e-01 -2.05652952e-01 +1.39889881e-01 +7.61966705e-02 +4.05775756e-01 +4.54383105e-01 -2.46034250e-01 +2.20700756e-01 -8.72883126e-02 +1.85526460e-01 -5.81133701e-02 -5.83640374e-02 -1.45085037e-01 +1.57910258e-01 -6.67840391e-02 -4.32136297e-01 -2.61437386e-01 -2.29639784e-01 +5.80447279e-02 +7.66119719e-01 +3.71781170e-01 +5.31944148e-02 -3.83917332e-01 +9.75389108e-02 -2.21797004e-02 +4.45772678e-01 +1.10259071e-01 +5.83087623e-01 -3.46450388e-01 -1.73950300e-01 -5.87035179e-01 +8.79733935e-02 +2.28988603e-01 -1.57018095e-01 -3.70252132e-02 -7.24616528e-01 +1.18434593e-01 -2.17381582e-01 +6.82790816e-01 -6.27960116e-02 -9.60868716e-01 +2.12210119e-01 -1.90693513e-01 -2.68382430e-01 +6.67731166e-01 -4.72396851e-01 +1.58352405e-01 -8.28335583e-01 +2.78312743e-01 -3.60460788e-01 -6.13538325e-01 -5.22995293e-01 -4.91806865e-02 -1.52575806e-01 +1.66215360e-01 +4.84947920e-01 -3.25681418e-01 -4.83405560e-01 -3.04614693e-01 -7.71745443e-01 +4.73810345e-01 -1.09867871e-01 -4.49259102e-01 +7.46548697e-02 -3.69145244e-01 -1.50712657e+00 -1.42973673e-03 -6.71802908e-02 -5.83917052e-02 +1.54230222e-01 +3.20757031e-01 +3.22597325e-01 -5.72423041e-01 +1.12979591e+00 +5.78740006e-03 -2.51248255e-02 +1.30858436e-01 -1.40346661e-01 +7.98862696e-01 +6.76796854e-01 +4.47930485e-01 +1.82421863e-01 +5.94859347e-02 -8.91994387e-02 +3.24129194e-01 +7.38133788e-01 -1.18181117e-01 +1.31181479e+00 +7.68198371e-01 -2.01565862e-01 +3.69242638e-01 -1.73303843e-01 +3.97445649e-01 +1.62970200e-02 +1.34185150e-01 -1.83226362e-01 -3.83823067e-01 -6.88150585e-01 +8.65467936e-02 -6.38002679e-02 -5.75700939e-01 +8.66119713e-02 +1.74996585e-01 +1.89918682e-01 +1.63323879e-02 +1.92231596e-01 -3.13900858e-02 +3.66527170e-01 -7.43574619e-01 -2.07448542e-01 +2.59980440e-01 +2.15052873e-01 -6.55808806e-01 -3.55366886e-01 +7.81634986e-01 +3.53490442e-01 -9.41331610e-02 -7.17942357e-01 -1.63894847e-01 -1.43861234e-01 +3.82636100e-01 -1.09463356e-01 +2.60463022e-02 -2.01671906e-02 +6.89172983e-01 -2.54603803e-01 +4.43889529e-01 +1.89327765e-02 -4.70750272e-01 +1.37238681e-01 -8.93004239e-02 -3.75781804e-01 +3.84742737e-01 -6.54534101e-02 +1.06293499e-01 -3.01433414e-01 -2.22091138e-01 +5.92016801e-02 -3.01975965e-01 -7.44852470e-03 +1.62172541e-01 +2.32721239e-01 +2.43193835e-01 -2.96684980e-01 +2.04913272e-03 -7.91994393e-01 -3.47840562e-02 +1.96821373e-02 -1.75161049e-01 -5.40088974e-02 -4.90720361e-01 +2.60207385e-01 -2.45646000e-01 +3.91490497e-02 +1.01328203e-02 -1.66763559e-01 -2.21600741e-01 +3.60244513e-01 -5.32253012e-02 -3.27557445e-01 +1.74404576e-01 -4.27200884e-01 -4.69492406e-01 -1.05438030e+00 -4.44304436e-01 -2.38055885e-01 -4.81545150e-01 -6.02346599e-01 -6.67918324e-01 +4.42428380e-01 -6.15676105e-01 -8.35858941e-01 +2.07013562e-01 +1.08376577e-01 -1.00310731e+00 -9.79631722e-01 -5.91843843e-01 -1.85558945e-01 +1.66163266e-01 -3.09626877e-01 -8.92449796e-01 -9.70125020e-01 +7.42870688e-01 -6.46115065e-01 -3.32402140e-01 -9.97645438e-01 -6.43362463e-01 -3.14911723e-01 -6.32620633e-01 -1.05290401e+00 +1.93357006e-01 -7.66912401e-01 -3.73390794e-01 +5.35862595e-02 -3.07228059e-01 -7.63613164e-01 -4.35447603e-01 -5.78652263e-01 -3.98095369e-01 +3.55696492e-02 -1.26217115e+00 +5.24089992e-01 -5.76884449e-01 -2.92901188e-01 +8.27376604e-01 -2.27516238e-03 +5.28896507e-03 -9.09366235e-02 +1.20088506e+00 +7.40623660e-03 -1.26248866e-01 -2.71041989e-01 -1.85632948e-02 -5.35148025e-01 +3.98070663e-01 +8.36407959e-01 +2.80788336e-02 -6.92476511e-01 -9.91186276e-02 -6.75579250e-01 -7.40476847e-01 -6.12977266e-01 -2.01952711e-01 -2.86337048e-01 -1.84983820e-01 -7.97736272e-02 -4.56542879e-01 +1.75646156e-01 +2.37509117e-01 +4.91115719e-01 -3.71837080e-01 +6.32710010e-02 -3.67360152e-02 +4.63239998e-01 +7.06541240e-02 -3.48130673e-01 -1.15572715e+00 -1.36914754e+00 +1.23108633e-01 -2.34511748e-01 +2.92772241e-02 -9.95282233e-02 +4.77318287e-01 -2.19567224e-01 -3.33676636e-01 +4.64000106e-01 +3.84543687e-01 +4.25607055e-01 +5.53499937e-01 +2.58504331e-01 -6.85424730e-02 -6.19567297e-02 +1.79555675e-03 +7.68265575e-02 -3.11548173e-01 -6.80793896e-02 +1.20663188e-01 +3.92028205e-02 +4.86233622e-01 +1.08346321e-01 -5.17519474e-01 +2.45693401e-01 +1.49587020e-01 +2.37781718e-01 +5.20834327e-01 -7.50666142e-01 -2.42960766e-01 -3.74345809e-01 -5.36429346e-01 -5.28615355e-01 +7.70019274e-03 +6.42863035e-01 +3.26711059e-01 +2.05566194e-02 -5.07948436e-02 -7.57795274e-01 +7.70257413e-01 -1.09946758e-01 +2.79976785e-01 -2.94211477e-01 -7.67227858e-02 +1.36729479e-02 -7.89952988e-04 +3.37037295e-01 +4.14825261e-01 +4.91046548e-01 +6.34562969e-01 +3.19898546e-01 +4.64516044e-01 +2.27086619e-01 -4.30500478e-01 +4.08186287e-01 -1.20166510e-01 +3.05341333e-01 -6.01201534e-01 -4.68774233e-03 +3.36039960e-02 -5.48704505e-01 -6.21823251e-01 -3.11128527e-01 +2.14130431e-01 -1.64043419e-02 +4.04227078e-01 +6.75517201e-01 +2.92135596e-01 -3.61704201e-01 -1.01135388e-01 +6.61267996e-01 +4.01332438e-01 +1.89056814e-01 -1.87114239e-01 -1.15566149e-01 +8.18357050e-01 -9.28396285e-02 -1.12017959e-01 +3.14583629e-01 +4.12778735e-01 -3.24257731e-01 +6.23402953e-01 -5.11699677e-01 -4.05714422e-01 -6.10677183e-01 +2.37586662e-01 +2.78953373e-01 -3.07473913e-02 -3.00300539e-01 -9.34877694e-02 -1.74200922e-01 -1.31775573e-01 -4.62724179e-01 +1.10911973e-01 -2.54038036e-01 -6.02350891e-01 -6.87942743e-01 +5.89484990e-01 +3.98303628e-01 +1.00932412e-01 -4.18298066e-01 -4.63892788e-01 +4.86164153e-01 +7.97766566e-01 -6.42239809e-01 +6.45113111e-01 +7.77610540e-02 +3.75197440e-01 +1.34044781e-01 -1.11395560e-01 +7.23106980e-01 +3.59968096e-02 +5.50785184e-01 +4.28169459e-01 +2.48042643e-02 -1.20691091e-01 -4.67073545e-02 +1.63545713e-01 -2.74947584e-01 -4.98155504e-01 -6.70593381e-01 +6.07039273e-01 -6.65621102e-01 +4.19114381e-01 +2.77015090e-01 -1.60795242e-01 +1.24618277e-01 +1.44740999e-01 -6.97972327e-02 -2.94976056e-01 +9.44750533e-02 -2.48137370e-01 +3.42147537e-02 +3.74271214e-01 +1.67557616e-02 -3.34816426e-01 -5.80579638e-01 -2.94155598e-01 -1.19991414e-01 -1.34310633e-01 +6.94202304e-01 +3.76648724e-01 -2.08060488e-01 +1.19894795e-01 -4.39361706e-02 +2.25813851e-01 +2.57568061e-01 +7.47970879e-01 -2.81791151e-01 +1.94273755e-01 -1.46400601e-01 +3.45684737e-02 -1.30383968e-01 -1.83464065e-01 +1.67243272e-01 +1.27830908e-01 +3.30374241e-01 -1.73930258e-01 -5.02441645e-01 +4.73675504e-02 -2.41142154e-01 +2.19625846e-01 +2.69809365e-01 +2.28860050e-01 +4.73194033e-01 +4.91115063e-01 -1.45228148e-01 +5.74387610e-01 +4.98833984e-01 +2.43387029e-01 +1.57241315e-01 +9.09768790e-02 -2.70366281e-01 -5.13013341e-02 +2.62620807e-01 +2.65045464e-01 -2.03332767e-01 -3.23430657e-01 -7.65832365e-01 +5.97124338e-01 +7.88085163e-02 +4.86448519e-02 -3.44016284e-01 +1.03056682e-02 -3.68353864e-03 -1.29924461e-01 -6.85641542e-02 +4.69680637e-01 -6.61255956e-01 +8.39047432e-02 +5.02004981e-01 +4.83628422e-01 -7.82179415e-01 -9.22224760e-01 +2.95870900e-02 -2.07225353e-01 +4.30513710e-01 -3.34854424e-01 +2.94607759e-01 -3.63240510e-01 +2.60412216e-01 +5.52858829e-01 -5.31782687e-01 -7.36011446e-01 +2.58077443e-01 +6.24650419e-01 +4.46758270e-01 -5.33467829e-02 +5.55294752e-01 +1.79562028e-02 +4.41394061e-01 +1.56614406e-05 +1.68084949e-02 +5.27924299e-01 +4.35975194e-01 -2.18256220e-01 -2.37368047e-01 -2.90213495e-01 +2.77543575e-01 -1.35817051e-01 +2.14751244e-01 +4.01673049e-01 +7.74414316e-02 +3.03092897e-01 -1.28025305e+00 -3.30628037e-01 +1.22088596e-01 -1.33639410e-01 +7.82216311e-01 +4.35379595e-01 -2.52727240e-01 +4.04326141e-01 +5.60035646e-01 +9.57172930e-01 +3.60244066e-01 -4.08376992e-01 +3.36912721e-01 -1.24208122e-01 +5.55826664e-01 +2.87010550e-01 +1.56112507e-01 -3.25527906e-01 +1.96088046e-01 +1.96370691e-01 -8.93656835e-02 +8.30525011e-02 -5.73894419e-02 +9.99161303e-01 +2.92750180e-01 +1.88788190e-01 -3.36631797e-02 -1.74407482e-01 +3.88558745e-01 +2.17796907e-01 -4.67396259e-01 -1.07065499e-01 -2.17832848e-02 +4.86971617e-01 +4.74981576e-01 -2.59529054e-01 -1.92598969e-01 +4.31962460e-01 -1.70964003e-01 -3.26016605e-01 -5.10219455e-01 -4.94137779e-02 +4.53349531e-01 +2.54166394e-01 +5.09244084e-01 -9.33600739e-02 -1.90678798e-02 -4.07998651e-01 +1.64391324e-01 -8.96468461e-02 +2.86965638e-01 +1.51253194e-01 -1.14252836e-01 +2.06927091e-01 -6.38899565e-01 +1.00528993e-01 +3.02586108e-02 +4.94683564e-01 -4.68148977e-01 -5.28504193e-01 +4.80274469e-01 -1.28570110e-01 +1.11112976e-02 +4.09981003e-03 +3.64568859e-01 +8.91700760e-02 -2.66696304e-01 +2.71337271e-01 -9.45720524e-02 -1.85420439e-01 +5.83581328e-01 -1.77058458e-01 +3.52569282e-01 +6.86981902e-02 +2.71342807e-02 -1.35653131e-02 +4.40686643e-01 +1.69786029e-02 +8.08264315e-02 -1.22463620e+00 -9.93665755e-02 +8.24016258e-02 +1.60803184e-01 +2.20176920e-01 +2.97612131e-01 +5.84766090e-01 -1.76980257e-01 +1.45606145e-01 -1.33187085e-01 -1.60635918e-01 -7.85752088e-02 -9.21125263e-02 -2.97905833e-01 +3.03328395e-01 +5.96593320e-02 +1.20599556e+00 -5.43248534e-01 -1.10638118e+00 -3.00943077e-01 -2.49166772e-01 +9.38676745e-02 +3.22589099e-01 -7.83494651e-01 -2.32703641e-01 -3.91141236e-01 +5.53226888e-01 -1.53029636e-01 -5.32505333e-01 -9.16954458e-01 -3.09674382e-01 -5.60809910e-01 -1.52477100e-01 -7.18341544e-02 -2.80943424e-01 +2.19358012e-01 -4.63192731e-01 -2.39115089e-01 +3.11371833e-01 +2.47412845e-01 +7.48478323e-02 -1.06155217e-01 -4.60742801e-01 -2.59487659e-01 -2.13393167e-01 +9.74533200e-01 +4.89794649e-02 -6.20529056e-03 +1.47189826e-01 +2.44682536e-01 +7.25302026e-02 +3.36513162e-01 +7.74702191e-01 +7.58024335e-01 +5.41005015e-01 -4.43947613e-02 -1.05462568e-02 +1.32279086e+00 -3.66246432e-01 +6.58813119e-01 -2.27513552e-01 -7.54642963e-01 +2.45809764e-01 -2.93556899e-01 -5.38797855e-01 +8.88501555e-02 -2.57995784e-01 -3.61402286e-03 -7.83615589e-01 -4.12343174e-01 -1.48385204e-03 +2.30272874e-01 +8.09955835e-01 +4.13575083e-01 -5.40321991e-02 +2.42718801e-01 +4.22023945e-02 -3.98760885e-01 +5.65806210e-01 -1.34376109e-01 -3.54364753e-01 +1.61944330e-01 -2.34552711e-01 -2.14340836e-01 +9.25391018e-02 +7.95817655e-03 +1.33258119e-01 -1.74789220e-01 -2.48887628e-01 +3.10176075e-01 +4.29052949e-01 +1.13860957e-01 +2.92895943e-01 -1.28142089e-01 -1.66278943e-01 -6.31633550e-02 -1.06023006e-01 +1.53400317e-01 -1.48528025e-01 +2.24429756e-01 +1.87271815e-02 -3.21414858e-01 -9.55720395e-02 -2.30749279e-01 -1.78791896e-01 -2.01605409e-01 +3.72094810e-02 -2.13802710e-01 -3.01383257e-01 -6.05397485e-03 -9.15759280e-02 +1.48737594e-01 -2.42772594e-01 -1.96042895e-01 +7.26430118e-02 -2.09406018e-01 +1.07326195e-01 -4.70153056e-02 -8.23621690e-01 -5.54051816e-01 +2.64464557e-01 -3.18139911e-01 +1.69822544e-01 -2.36692294e-01 +3.95134628e-01 -2.64406681e-01 +6.28647022e-03 -6.90798759e-02 +4.56943989e-01 -2.73027066e-02 +4.56125289e-01 -2.18450390e-02 -2.31866948e-02 -5.59980392e-01 +4.27774489e-01 -2.15596780e-01 -7.38699660e-02 +8.16528201e-01 -9.15726840e-01 +7.10025966e-01 -1.94612578e-01 -9.19405147e-02 -1.01941848e+00 -5.77658832e-01 -1.74894601e-01 +3.17495465e-01 +8.15080702e-01 -2.42053673e-01 +3.06204837e-02 -2.22681910e-01 +2.93271065e-01 +7.67025113e-01 -1.29712373e-01 -6.54816106e-02 -8.16595182e-02 +1.84540391e-01 +7.21762419e-01 +4.76140708e-01 -2.48272985e-01 +2.89607197e-01 -2.48069450e-01 -2.19837934e-01 +1.78886399e-01 -3.81907940e-01 +6.31531551e-02 +1.71730608e-01 +1.43021852e-01 -4.91151512e-01 -3.71205389e-01 +4.64558452e-01 +2.90482491e-01 +6.40170336e-01 +2.58824199e-01 -1.58086136e-01 -6.57906771e-01 -1.03355134e-02 -4.55768049e-01 -3.37811738e-01 -1.51551813e-01 -1.03771532e+00 -2.57543296e-01 -4.92628664e-01 -3.96479130e-01 -5.18155610e-03 -7.38737807e-02 -7.32374132e-01 -3.06496918e-02 -7.55162597e-01 -1.50659114e-01 +7.21965730e-01 -3.45202655e-01 -9.73370150e-02 -5.30121088e-01 +1.96929887e-01 +2.67158806e-01 -3.82899225e-01 +1.04239058e+00 -5.81740379e-01 +2.07371339e-01 -1.43452525e-01 -5.55527568e-01 +3.20997983e-01 -8.32552761e-02 -1.40295014e-01 +3.51194859e-01 -3.04407954e-01 -5.29540539e-01 +5.59612989e-01 -3.97690624e-01 -6.05202675e-01 -2.75371045e-01 -6.55637011e-02 +3.76672268e-01 +4.82351094e-01 -1.29928231e+00 -3.31029087e-01 +2.09832445e-01 +4.79683429e-01 -7.14362383e-01 -5.59677064e-01 -2.15513006e-01 -6.18462086e-01 -2.43499622e-01 -4.54831198e-02 +8.03442419e-01 -1.88893061e-02 -1.20254524e-01 -1.40636638e-01 +1.19217455e-01 -5.01255155e-01 +3.01712573e-01 +1.80098906e-01 -4.59069014e-01 -3.88385028e-01 +2.96093792e-01 -4.41254765e-01 -1.89070836e-01 -1.45211279e-01 -1.84750855e-01 -2.83110976e-01 +2.30574310e-01 +6.02857806e-02 +1.91195816e-01 -3.69584024e-01 -1.66222930e-01 -6.26071021e-02 -7.03508019e-01 -2.38986447e-01 +4.88618948e-02 +5.57432473e-01 +8.38018954e-02 +2.62739025e-02 -9.52355936e-02 +1.12345248e-01 -4.61362749e-01 +4.26088780e-01 -4.48885441e-01 +5.87528288e-01 -2.41316617e-01 -2.55108505e-01 +5.26362598e-01 -8.02778304e-01 +3.79832350e-02 -3.21348429e-01 -8.70276272e-01 +2.60004818e-01 -4.26662356e-01 +2.56846696e-01 +9.22974870e-02 -5.97903669e-01 -2.78696984e-01 -4.03246522e-01 -1.92886107e-02 -4.37568307e-01 -3.37884665e-01 -3.28059018e-01 -2.51814157e-01 -2.94121392e-02 +1.42305091e-01 -2.43350789e-01 -2.34339222e-01 +7.16442661e-03 -9.52338725e-02 -3.50846887e-01 +1.99006110e-01 -6.80847406e-01 +1.14519298e-01 -1.85052052e-01 -4.91539598e-01 -4.60101157e-01 -4.97793287e-01 -9.52973515e-02 -8.07292938e-01 +3.86703044e-01 +1.87787905e-01 -5.08919895e-01 -4.74018574e-01 +3.83445501e-01 +4.56308216e-01 -5.55774709e-03 -4.39796835e-01 +2.19062850e-01 -3.29171926e-01 -2.77640849e-01 -6.43073395e-02 -3.78404588e-01 -1.16592579e-01 -6.08902037e-01 +6.92204610e-02 -5.24690151e-02 +2.45444357e-01 -5.52800655e-01 -1.88888595e-01 +5.10137677e-01 -5.54729044e-01 +3.18983525e-01 -2.27636024e-02 -1.77808240e-01 +7.36464374e-03 -1.45248339e-01 -7.43423820e-01 +3.25092047e-01 -1.01544690e+00 -9.92579758e-01 -2.28160364e-03 -8.04880857e-01 -7.00832009e-01 -3.95378292e-01 +6.64346337e-01 +5.36762595e-01 -4.48113158e-02 +4.10765499e-01 +1.40655130e-01 -6.91633224e-01 -9.24895033e-02 -6.39303848e-02 +1.79708347e-01 +7.57957324e-02 -2.44429931e-01 +3.64432782e-01 +2.72244006e-01 +3.69099453e-02 -8.72330815e-02 -4.24041264e-02 -2.51395792e-01 +3.05003941e-01 -2.18538269e-01 -2.54563570e-01 +2.44049057e-01 -5.34677148e-01 -3.28953356e-01 +5.99497378e-01 -1.61199510e-01 +2.13611454e-01 -2.74701029e-01 -4.83502895e-01 -7.64745548e-02 +1.71660781e-01 -1.71127141e-01 -1.53902322e-01 +3.38313371e-01 -2.70511359e-01 +2.57544965e-01 -1.44787222e-01 +3.83978397e-01 -3.16464305e-01 -4.08551484e-01 +5.19306548e-02 +6.06261432e-01 -2.30714977e-02 +5.23249388e-01 -5.96191920e-02 -2.58114487e-01 -5.38632333e-01 +1.10237688e-01 -1.19536527e-01 -5.72658360e-01 +3.03380668e-01 -5.34818113e-01 +1.62766293e-01 -5.46466000e-02 +8.76606852e-02 +4.84111786e-01 +4.47969884e-01 -3.10501397e-01 +1.66614365e-03 +4.70367856e-02 +5.13203815e-02 +2.58769363e-01 -2.45530933e-01 -4.41812634e-01 -5.52357137e-01 -8.45497072e-01 +1.55467317e-01 -4.00544763e-01 +3.18643898e-01 -3.64743888e-01 -1.10193424e-01 -6.56523049e-01 -8.40673804e-01 -8.91317278e-02 -1.54989541e-01 -5.02896905e-01 -1.14885068e+00 -3.49476874e-01 -7.61471510e-01 -8.44186731e-03 -6.95012629e-01 -6.26092076e-01 -8.41268539e-01 +1.46935493e-01 -6.83914363e-01 -2.92008668e-01 -7.85876513e-01 -1.12612270e-01 -1.46882430e-01 -5.02104759e-01 -1.21273386e+00 -2.16610208e-01 -7.26944923e-01 -2.52512842e-01 +6.63308918e-01 -1.13055527e-01 -4.49581891e-01 -3.39104384e-01 -2.67223030e-01 -6.87802806e-02 +4.32511151e-01 -7.93965220e-01 +1.71507314e-01 -6.99923575e-01 -3.41873676e-01 +1.09744537e+00 -1.50738135e-01 +3.92460734e-01 -2.65604228e-01 +3.27374876e-01 -1.99741200e-01 +3.62970054e-01 -1.09737194e+00 -5.67860067e-01 -8.62940103e-02 +4.15942729e-01 +9.45004761e-01 +8.55455622e-02 -1.58431053e-01 -4.84602749e-02 +2.43901671e-03 -3.94860208e-01 -4.24950778e-01 -6.27256691e-01 -5.36850870e-01 -5.04245013e-02 +9.45145339e-02 -8.61961424e-01 -3.05637866e-01 +7.53979832e-02 +1.10899828e-01 +2.07277521e-01 +1.87475160e-01 +7.29633123e-02 -5.79099320e-02 +3.96523714e-01 -7.51116216e-01 +7.40246996e-02 -5.06250083e-01 +2.01099232e-01 +1.79411367e-01 +1.80224463e-01 -5.61913103e-02 +3.50164026e-01 +3.27697620e-02 -5.11782944e-01 +9.24358666e-02 +1.54631361e-01 +4.32153106e-01 +5.13850451e-01 +1.71880960e-01 -2.23670051e-01 +1.41278192e-01 -1.15147722e+00 +3.07174832e-01 -5.25998026e-02 -6.74609393e-02 +4.60148185e-01 +3.93826850e-02 +2.15502247e-01 +1.92709386e-01 +4.17715073e-01 +4.92240548e-01 +1.76351339e-01 +2.71455199e-01 +2.16596216e-01 +3.06752712e-01 +1.79862350e-01 +1.33696795e-01 +2.54396737e-01 +1.87730771e-02 +1.62004590e-01 -6.88879848e-01 +5.00136077e-01 +3.01221125e-02 -4.56991680e-02 +1.53556690e-01 +7.07551315e-02 -2.58275628e-01 +1.14135675e-01 +8.32704365e-01 +7.44716644e-01 +2.67061833e-02 +2.12570384e-01 +2.21441418e-01 +1.17721647e-01 +6.07932627e-01 -1.00430451e-01 -4.19853061e-01 +5.22881389e-01 +2.88204879e-01 -6.15737498e-01 -3.44975442e-01 +3.35697651e-01 +5.36818922e-01 +2.27114230e-01 -4.14326712e-02 -1.03278959e+00 +6.23722911e-01 +1.93132043e-01 -5.21413863e-01 -2.49031469e-01 -2.38778412e-01 +5.14656425e-01 -2.38753468e-01 +9.10874903e-02 +2.39293799e-01 -8.27536732e-03 +7.95451164e-01 -3.55596274e-01 +1.34900406e-01 +3.09330791e-01 +4.39537227e-01 +2.89624810e-01 -1.97997287e-01 -1.03070021e-01 +1.56073362e-01 +4.97578979e-02 -2.61696994e-01 -4.17218730e-03 -4.62059885e-01 -5.93959570e-01 -9.34458852e-01 -1.77664921e-01 -6.42534375e-01 +1.10688910e-03 +6.53927326e-01 +9.01522458e-01 +1.96293220e-01 -4.64825153e-01 +1.23674369e+00 -2.69334823e-01 +2.19185352e-01 +1.33990154e-01 +4.67222869e-01 +1.10188258e+00 +4.01059836e-01 +1.48192334e+00 -7.00445101e-02 -8.19170833e-01 +4.92408246e-01 +1.08864509e-01 +1.46665037e-01 -2.45122194e-01 +1.11114717e+00 +1.27917266e+00 +4.59189445e-01 +9.98041928e-01 +5.22591211e-02 +2.36296207e-02 +4.10703689e-01 +4.70971972e-01 -1.09556854e+00 -2.90055573e-02 -1.84629008e-01 -4.72570449e-01 -1.49308309e-01 -4.31337833e-01 +3.43212187e-01 +1.95262536e-01 -1.46726310e-01 -5.72456896e-01 -1.45502880e-01 -2.51239657e-01 +2.46884629e-01 -8.64259899e-01 -6.09019846e-02 -1.95307583e-01 +1.84157506e-01 -4.92680728e-01 +2.00474486e-01 +2.53859729e-01 +1.32958174e-01 -3.88220042e-01 +1.14137270e-01 +6.51784539e-01 -1.27851352e-01 +1.53176680e-01 -3.55971903e-01 -1.62768856e-01 +2.77923971e-01 +2.46516719e-01 +3.34990174e-01 -4.87318516e-01 -7.88427442e-02 -9.88552123e-02 +4.66062337e-01 -2.53504187e-01 +5.20508647e-01 -2.37751171e-01 -7.06683934e-01 -1.05867758e-01 +3.21469188e-01 +2.94434458e-01 -4.37409580e-01 +2.96999246e-01 -2.18973070e-01 +3.15931171e-01 -1.39768096e-02 +7.36027062e-01 +4.65338200e-01 -4.60899144e-01 +3.27321678e-01 +3.95099342e-01 -4.65027899e-01 +5.83598018e-01 +7.28253946e-02 -5.04988506e-02 +6.69894516e-02 +4.43967104e-01 -3.03318560e-01 +2.40519911e-01 +1.78571660e-02 +6.17602229e-01 +5.59901004e-04 -4.78600860e-02 +1.46037349e-02 +3.47003281e-01 -1.13344502e+00 +2.69469321e-01 +7.45591149e-02 -7.11583123e-02 +1.46303773e-01 -1.69519082e-01 +8.87677789e-01 +5.44500239e-02 +3.94079655e-01 -5.40221930e-01 -7.82951653e-01 -3.39372665e-01 -1.70582049e-02 +7.88035095e-01 -3.62512559e-01 +4.80298042e-01 -6.02301240e-01 -2.83376783e-01 +5.31633615e-01 -3.74305427e-01 -2.23360091e-01 -5.20609677e-01 +6.27709150e-01 +9.96538341e-01 +5.02856299e-02 -1.58750534e-01 -2.13345475e-02 -5.34573235e-02 -2.10199222e-01 +3.61729302e-02 +2.07890540e-01 +2.72999983e-02 +5.06420732e-01 -1.19957529e-01 +2.76679069e-01 -3.70246679e-01 +1.20213740e-01 +1.26621589e-01 +6.16695166e-01 +1.83624625e-01 -5.24703085e-01 -3.23235273e-01 -6.36127517e-02 +2.01362684e-01 -6.05118454e-01 +1.07256606e-01 -3.35299700e-01 -9.86976802e-01 -2.66379803e-01 +1.81587934e-02 -2.51161784e-01 -5.13740242e-01 -9.20444548e-01 +1.11984298e-01 +5.69525845e-02 +3.34768072e-02 +8.37570250e-01 -6.15996659e-01 +4.42604065e-01 +5.71310341e-01 -5.37026674e-03 +3.11226547e-01 -2.61407077e-01 +5.05774081e-01 -2.03323469e-01 -3.66981983e-01 -4.13157344e-01 -1.04277289e+00 +1.12727478e-01 -1.51168928e-01 +1.10099986e-01 +1.37650385e-01 -3.91325325e-01 -3.61930043e-01 +9.88553762e-02 +5.46774805e-01 -2.81804446e-02 +1.43125141e-02 +3.90637964e-01 -1.06419861e-01 +3.95863324e-01 -5.60742877e-02 +5.13495922e-01 +2.75216609e-01 -8.96445662e-02 -5.40279031e-01 -1.69381753e-01 +8.97080749e-02 -2.00696424e-01 -4.10277843e-01 +2.41083086e-01 -1.50749922e-01 -2.35064581e-01 +1.85105562e-01 -3.40824783e-01 +1.53020620e-01 -1.68251786e-02 +3.29796463e-01 -5.68991840e-01 -2.91914761e-01 -4.48272347e-01 -3.98615263e-02 -1.53389096e-01 -6.01230748e-02 -4.08111870e-01 -8.67740139e-02 -4.99698430e-01 -1.62126496e-01 +8.82243067e-02 +8.16316009e-01 +3.42639625e-01 +2.17747241e-01 -1.84746072e-01 -9.57015902e-02 -3.11283171e-01 +7.61799738e-02 -5.36581457e-01 +1.54571980e-01 -2.07385883e-01 +1.28595576e-01 +8.88762064e-03 -2.26803659e-03 -4.42365073e-02 +2.80048519e-01 -1.21961359e-03 +7.59719074e-01 +2.75666744e-01 +8.48221555e-02 -2.66093850e-01 +6.15801096e-01 +2.80043364e-01 -3.27757597e-01 +3.10780425e-02 -1.20907462e+00 +2.60933191e-01 +7.32239544e-01 -8.70759726e-01 -3.83698076e-01 -1.31619036e-01 -4.53484654e-01 +3.68373424e-01 -2.64687091e-01 +4.19701375e-02 -6.90046012e-01 -5.86404763e-02 +4.11798090e-01 +7.06997991e-01 +2.05415174e-01 -4.62664455e-01 -3.30014415e-02 -3.73289913e-01 -9.62572396e-02 +9.99523103e-02 -5.34416080e-01 +1.71247259e-01 -3.13372731e-01 -7.75237903e-02 +9.44932818e-01 -1.01349568e+00 +3.03704560e-01 +5.42818964e-01 +3.73361498e-01 +3.66736740e-01 -1.73843756e-01 -6.88610494e-01 -5.61268747e-01 +2.61969537e-01 +5.64496070e-02 -1.23603404e+00 -3.65358829e-01 -6.98594078e-02 +1.42723098e-01 -6.42230809e-01 -5.82371473e-01 -1.66125819e-01 -3.41947317e-01 +3.20357412e-01 +1.67069033e-01 +4.08651829e-01 -2.31597960e-01 -7.59590566e-01 +8.21462393e-01 -8.83639157e-01 -9.03596282e-01 +2.85630494e-01 -7.98151135e-01 +2.03492641e-01 -2.35801205e-01 +2.57243752e-01 -1.59769058e-01 +1.82006598e-01 +1.47048160e-01 +1.10577464e-01 -1.86100736e-01 +1.87753469e-01 +2.45018691e-01 +1.93356141e-01 -8.76491815e-02 +3.01292181e-01 +4.29089874e-01 -2.71275640e-02 +7.21384725e-03 -3.19322020e-01 +2.20140576e-01 -2.96669543e-01 -2.94820189e-01 +9.09420475e-03 +4.19573545e-01 +7.51089826e-02 +6.91600842e-03 -8.48029107e-02 +3.76131445e-01 +2.02314377e-01 -8.96285102e-02 +2.13496879e-01 -2.70077676e-01 +7.01607624e-03 -2.31580511e-01 -3.85209650e-01 -3.24683189e-01 +1.23946937e-02 -1.16009703e-02 -6.13945723e-03 +4.94223028e-01 -1.67896628e-01 -1.68748021e-01 -3.22525911e-02 +1.64136678e-01 +6.80980563e-01 -2.59193987e-01 +7.47202411e-02 +4.03095722e-01 +5.61998248e-01 +9.44584534e-02 +1.69532672e-01 -9.14975256e-02 -1.48954585e-01 -3.46050531e-01 -4.92448002e-01 +1.67618006e-01 +2.29989290e-01 -1.98787794e-01 -1.12033924e-02 +4.79217991e-02 -6.64137125e-01 +8.13611522e-02 -1.56649515e-01 -2.12789103e-01 +6.58867061e-02 -7.10197985e-02 +6.97465912e-02 -1.90112263e-01 +2.68069148e-01 +5.72495423e-02 -1.66693270e-01 +7.34105930e-02 +1.16608381e-01 -9.41590369e-01 +2.93868989e-01 +2.82930285e-01 +1.56303823e-01 -2.83534557e-01 -4.89998281e-01 -1.29939044e+00 +7.49495268e-01 +3.74061801e-02 +1.11821614e-01 +1.17887057e-01 +1.27717003e-01 +4.71137255e-01 +4.84223783e-01 +1.73028499e-01 +1.50381029e-01 -2.55650967e-01 +3.48758399e-01 -2.98196990e-02 +5.64153679e-02 +6.80631399e-02 +2.50436515e-01 +6.97616458e-01 -7.21715868e-01 -1.18878424e-01 +1.29414946e-01 +3.67459863e-01 -1.69366956e-01 -1.00149624e-01 +2.03053325e-01 -9.32490051e-01 -1.08550298e+00 -8.81473184e-01 -2.08122492e-01 -1.77255154e-01 +3.08625311e-01 -9.82370507e-03 -4.16831881e-01 -5.20425618e-01 +1.43773425e+00 +2.09472701e-01 +1.00288846e-01 -2.04186901e-01 +1.53006036e-02 +5.03842592e-01 +5.77070653e-01 +1.43698871e+00 -3.71900976e-01 -8.25930178e-01 +4.41964149e-01 +4.99661684e-01 -3.78790706e-01 -6.08457923e-01 +5.52513897e-01 +1.10445702e+00 -1.81353211e-01 +7.21634626e-01 -1.00765936e-01 -2.09028542e-01 -5.48538387e-01 +3.73312265e-01 -5.28366148e-01 -5.28912246e-01 -1.27369240e-01 +4.36903149e-01 +5.64261526e-02 -3.68214548e-01 -6.25976995e-02 +5.56192622e-02 -2.04273999e-01 -2.80091465e-01 +4.85398263e-01 -1.65304542e-01 +4.66460466e-01 -1.11431634e+00 +3.64698358e-02 -4.97045457e-01 -1.20371794e-02 -1.64321870e-01 +2.39500657e-01 -3.54053080e-02 +1.00598931e-01 -1.75488472e-01 +1.99691504e-01 +7.72703111e-01 -1.37564287e-01 -3.76882493e-01 +3.35700244e-01 +2.04342231e-01 -4.31482404e-01 +7.83905506e-01 -1.51493296e-01 -4.17378247e-02 +3.65206242e-01 -8.77197012e-02 -4.09261547e-02 +4.68084216e-02 +1.57237813e-01 -2.84409314e-01 +3.39276254e-01 -1.85741812e-01 -4.33537900e-01 +3.75774652e-01 +5.84237278e-01 -3.04085404e-01 -1.80357471e-02 -7.92587250e-02 -4.85876113e-01 -1.32077992e-01 +4.12253648e-01 +5.00518799e-01 +7.49940276e-01 +2.90155172e-01 +3.89061898e-01 -3.14332023e-02 -2.87515193e-01 +1.89277992e-01 +1.68909669e-01 -1.40772581e-01 +1.10553764e-01 -7.34732766e-03 -3.00137609e-01 +3.08261383e-02 -2.70611286e-01 +4.74221669e-02 +5.50776012e-02 +6.79006614e-03 +3.24517727e-01 -3.99926394e-01 +8.50300014e-01 +4.19979662e-01 +2.53480703e-01 +1.88495070e-01 +9.36939195e-02 +4.49231476e-01 -8.20835769e-01 +1.20580888e+00 +1.36145151e+00 +2.78730571e-01 -2.13626474e-01 -1.82813019e-01 +1.54234743e+00 -4.77542967e-01 +4.89650905e-01 +4.32808310e-01 -1.52957991e-01 +1.25281289e-01 -1.50299696e-02 +2.40460500e-01 -4.33984667e-01 -6.57909036e-01 +7.81889141e-01 +6.22577906e-01 +5.73444128e-01 +3.68176132e-01 +8.09541225e-01 +8.40488151e-02 +3.53155285e-01 +5.32563388e-01 +3.65447968e-01 -3.40110600e-01 +7.59972990e-01 -6.28340095e-02 +3.14122856e-01 -4.43734348e-01 -7.26581991e-01 +5.53720295e-02 +1.78363547e-01 +6.54481471e-01 +4.28682238e-01 -8.79866958e-01 -3.78656894e-01 -8.96112323e-01 +6.96891606e-01 -7.17161074e-02 -9.72490683e-02 +4.59472835e-02 +1.98420554e-01 -2.89220549e-02 -5.58659583e-02 +1.48746744e-02 -1.30255833e-01 -6.34723127e-01 +2.27307389e-03 +3.04381579e-01 +7.03288198e-01 +5.10611534e-01 +3.21994238e-02 -7.91699469e-01 +2.85380006e-01 +7.71817416e-02 +5.75993419e-01 +1.59631178e-01 +3.76597613e-01 +6.71487391e-01 -1.55565381e-01 +1.89073816e-01 -3.61871839e-01 -1.27538621e-01 -1.59710363e-01 -9.99296433e-04 -5.64282835e-01 +4.82403219e-01 +9.33733344e-01 +3.32181871e-01 +1.28940776e-01 +1.40229493e-01 -2.85107911e-01 -2.01585844e-01 -4.70031500e-01 -8.48455951e-02 -4.19578075e-01 +4.14559722e-01 -5.91604374e-02 -1.58274561e-01 +4.37119007e-01 -1.52606338e-01 -2.59153962e-01 -5.78548014e-01 +4.74533170e-01 +1.80693328e-01 +3.56203347e-01 -2.21802846e-01 +7.53970295e-02 +5.03716767e-01 +6.03360772e-01 -1.04395829e-01 -3.37237194e-02 +1.34458244e-01 +5.08760214e-01 +2.94606656e-01 -1.18279862e+00 +1.69788808e-01 -2.81125847e-02 +9.31991115e-02 +4.28095341e-01 -6.72653168e-02 +1.01482406e-01 -2.46496722e-01 -4.35130835e-01 +3.29404950e-01 -6.84267581e-01 -1.11857571e-01 -1.47970125e-01 -1.92305058e-01 -1.23248070e-01 -3.05765927e-01 -1.94062516e-01 +1.56142831e-01 +2.15309352e-01 +9.49883685e-02 +7.69178689e-01 +5.30942619e-01 +2.38264620e-01 +1.95185617e-01 +5.68000793e-01 -1.05485305e-01 +4.08871859e-01 +8.65307972e-02 -3.57865751e-01 -1.48785397e-01 -5.18075526e-01 -1.27533421e-01 -2.36440957e-01 +1.49807557e-01 -5.41105688e-01 +4.19414461e-01 -3.07140380e-01 +3.11096251e-01 +1.15681171e-01 +4.52253491e-01 -8.24171305e-03 +4.18374807e-01 +1.41753525e-01 +1.66665629e-01 +1.49890020e-01 +1.38456419e-01 -9.50844884e-02 +1.18031502e+00 -1.28881574e-01 -4.33300883e-01 -1.69600606e-01 +1.70725405e-01 -1.91966407e-02 +5.65912187e-01 -5.79041064e-01 -6.12589240e-01 -2.87298977e-01 +1.88367322e-01 +2.93341219e-01 -4.77145016e-02 -4.12331432e-01 +4.02557343e-01 -2.83912271e-01 +1.17189772e-01 -2.66937822e-01 +1.26927108e-01 -3.42725396e-01 -5.54945052e-01 +2.35337287e-01 +7.71632612e-01 +2.29609221e-01 +1.56732053e-01 +1.30252689e-01 -3.38284701e-01 +7.53528774e-01 +2.47319490e-01 -6.58692792e-02 -4.43291247e-01 +1.82327956e-01 +8.11791956e-01 -3.20974261e-01 +4.00470078e-01 +3.49720716e-01 +5.45039121e-03 +5.05775094e-01 +3.29997833e-03 -1.31610751e-01 -5.84823072e-01 +3.49707961e-01 -2.17173114e-01 -6.06995784e-02 -3.04371834e-01 -5.73564649e-01 +2.52157956e-01 -3.38629842e-01 -3.81641030e-01 -6.86534166e-01 -4.00228322e-01 +2.06594646e-01 +7.02814937e-01 +1.83271796e-01 -5.13510108e-01 +1.73887294e-02 -1.31033406e-01 +1.11452892e-01 +5.75382531e-01 +7.47073889e-01 -2.68738419e-01 -3.88248235e-01 +7.36194924e-02 -5.80689609e-01 -9.95426103e-02 +8.76406506e-02 -1.46046475e-01 +2.33208880e-01 +3.07067055e-02 +8.14905390e-02 -4.66805607e-01 -4.38389510e-01 +2.17971295e-01 +7.14648962e-01 +2.18159974e-01 -2.46312708e-01 -1.15201332e-01 +1.49320194e-03 +2.03308299e-01 +1.27510414e-01 -3.16533387e-01 -3.88003647e-01 -2.38190085e-01 +1.18737549e-01 -4.14381146e-01 +1.74875468e-01 +1.32042706e-01 +3.22171956e-01 +3.53874594e-01 -5.74385107e-01 +1.77009463e-01 -1.25444427e-01 +6.66425765e-01 -1.80084839e-01 +2.27700070e-01 -1.62285417e-01 -9.15376917e-02 -1.38132080e-01 +3.79505306e-01 -4.46703658e-02 +1.18774742e-01 +1.61329687e-01 +5.72815895e-01 +8.27461720e-01 -1.03073321e-01 +6.76786780e-01 -3.66906285e-01 -2.48308390e-01 +8.84352848e-02 +2.00563312e-01 -6.38454795e-01 -3.17202717e-01 -4.70120549e-01 -3.92891645e-01 -5.40527403e-01 -9.24694687e-02 +2.17485219e-01 +2.95855641e-01 +1.92888916e-01 +1.62448540e-01 -1.68515176e-01 +4.51557542e-04 +5.79180896e-01 +7.39414617e-02 +6.51648998e-01 +4.71360125e-02 +3.79218847e-01 -5.23183882e-01 +2.28320301e-01 -1.33782160e-02 -3.63535106e-01 +1.70420274e-01 +3.52573991e-01 +1.07819654e-01 +1.18631169e-01 -4.80568528e-01 +1.55911237e-01 -5.54270089e-01 -6.93391040e-02 -1.88921869e-01 -2.16483101e-01 -1.04275596e+00 -4.34410006e-01 -3.57263505e-01 -6.41107976e-01 +1.15502410e-01 -4.02651936e-01 -2.66391486e-01 -2.63840824e-01 +4.83327098e-02 +5.14544487e-01 +7.34078944e-01 +6.29161358e-01 -8.67548734e-02 -6.63427234e-01 +1.27890062e+00 +1.48671138e+00 -2.70291895e-01 +4.96680886e-01 -1.48338946e-02 +3.44512552e-01 -1.85284480e-01 +6.62228391e-02 -1.77015498e-01 -1.03310071e-01 +1.29898012e-01 +5.55912480e-02 +6.14900887e-01 -4.46266681e-01 +1.83453724e-01 +4.29389209e-01 +1.06119134e-01 -1.87911004e-01 -5.29956043e-01 +2.33030573e-01 -6.37983322e-01 +4.74647701e-01 +2.87523031e-01 -1.63014993e-01 -1.99975595e-02 -2.48304144e-01 -4.51502427e-02 -3.04436833e-02 -4.02711302e-01 -6.01036772e-02 -1.30054563e-01 +5.81243873e-01 +1.28350005e-01 +6.12512752e-02 -7.53716648e-01 -3.55215482e-02 -1.13549018e-02 -3.07560980e-01 +6.65048003e-01 +4.19424295e-01 -4.61211145e-01 +3.37429881e-01 -3.58720928e-01 +2.89771527e-01 +3.27665240e-01 +3.68159205e-01 -2.90386558e-01 -1.14888854e-01 +3.60679924e-01 +2.16121912e-01 +6.57287315e-02 -8.24007839e-02 +1.22873023e-01 +5.30228794e-01 -9.72246379e-02 -1.04429990e-01 +2.91993201e-01 +3.47837299e-01 -1.83901951e-01 -2.74394214e-01 +3.24406624e-01 -1.10715084e-01 +3.17803100e-02 +7.26216853e-01 +1.61407739e-01 -1.81922600e-01 -3.63379329e-01 +7.76107013e-02 -2.79736072e-01 -3.50924850e-01 -2.56177664e-01 -5.41785620e-02 +3.43577147e-01 -8.60964581e-02 -1.70794353e-01 -5.60888872e-02 -2.06418559e-01 -1.26328990e-01 +8.69867623e-01 -7.87518263e-01 +3.59614551e-01 +5.57914972e-01 -1.26352817e-01 +3.69121492e-01 -6.43304765e-01 +2.88343579e-01 +5.02279043e-01 +5.62466443e-01 +8.62370610e-01 -5.72513223e-01 +4.07501280e-01 -8.26251972e-03 +7.03827083e-01 +2.36715063e-01 +5.84087014e-01 +1.13097742e-01 +3.27346548e-02 +2.73681432e-02 +6.04400411e-02 +5.70729494e-01 -6.44480512e-02 +4.35504019e-01 -6.24054447e-02 +3.21771860e-01 +7.73480833e-02 +8.01354423e-02 +1.04623079e-01 +5.77188909e-01 +4.00616936e-02 +4.64351736e-02 +4.53507304e-01 +5.05938828e-02 +3.79424959e-01 +5.00483274e-01 -4.85564560e-01 +4.92549166e-02 -7.62730718e-01 +3.82033378e-01 -3.06519628e-01 +5.20134032e-01 +2.39155382e-01 +2.67074525e-01 -1.76806837e-01 -1.88466460e-02 +3.57903540e-01 -1.35036390e-02 +3.91928583e-01 +3.99901837e-01 +1.66152477e-01 -2.48954579e-01 -1.48935586e-01 +2.24095464e-01 -3.59258172e-03 +2.03130201e-01 -6.76073670e-01 -1.37492046e-02 +1.05428010e-01 +5.42135000e-01 -8.98322538e-02 +1.52300149e-01 +9.18376267e-01 -2.81522900e-01 +1.17894530e+00 -6.36171596e-03 +7.04002902e-02 -2.24226624e-01 -3.13153833e-01 +2.41151497e-01 -3.17883305e-02 -1.58774406e-01 +1.05577743e+00 +3.39035951e-02 -2.75604993e-01 +2.37330273e-01 -1.56576797e-01 +2.58561061e-03 +1.37434110e-01 -1.63778096e-01 -1.37829050e-01 -2.93351054e-01 +1.47580504e-01 -1.74179867e-01 -1.21368609e-01 -3.18538487e-01 +3.97136718e-01 -2.34597102e-01 +4.06608045e-01 +5.01622915e-01 -3.99182677e-01 -8.49849343e-01 -1.38035074e-01 +5.75903177e-01 -1.84839219e-02 +8.40480477e-02 +4.82462458e-02 +8.66271630e-02 +6.21199965e-01 +4.82945710e-01 -2.52843738e-01 -1.10374674e-01 +2.76402026e-01 +2.10908636e-01 +1.41757280e-01 -1.40371323e-01 +1.97936893e-01 +5.63587070e-01 +9.07063425e-01 -4.87995833e-01 +1.23909712e-01 -5.18173993e-01 +5.00069000e-02 +1.67690560e-01 +4.23313826e-01 -7.06726730e-01 +7.81098247e-01 +1.68947339e-01 +2.48160914e-01 -1.98978722e-01 +1.55899711e-02 -1.99254483e-01 +1.50695041e-01 -7.14415193e-01 +3.71983707e-01 -6.71642303e-01 +2.12789819e-01 -5.14144540e-01 +1.50743574e-01 -5.58262825e-01 -2.26279914e-01 +5.60518861e-01 -1.91593066e-01 +1.38541448e+00 -6.13961339e-01 -4.04178590e-01 +1.89986810e-01 +3.86862814e-01 +1.01807229e-01 -2.84015507e-01 -8.01504791e-01 -9.14340019e-02 -2.08608344e-01 +1.62906915e-01 -3.42489004e-01 -6.45394027e-01 -6.60940349e-01 +5.17244339e-02 -3.90184283e-01 -3.70001793e-01 +3.96844327e-01 +1.56372026e-01 -7.02683568e-01 -4.53341007e-01 -5.98688066e-01 +3.62250000e-01 +2.25594506e-01 -2.29428872e-01 +3.74052197e-01 -1.64983481e-01 -4.69764352e-01 -8.58146369e-01 -2.50973254e-01 +5.20852566e-01 +1.71303481e-01 +9.71308827e-01 -9.20255035e-02 -3.51091444e-01 +3.26784015e-01 +2.07803175e-01 -1.32582530e-01 +1.47337615e-01 +1.29317045e-01 +1.91036373e-01 +7.40158916e-01 -3.73299569e-01 -3.26461434e-01 -3.54663283e-01 -6.92267478e-01 +4.17231888e-01 +6.18837357e-01 -4.55859184e-01 +4.04613256e-01 +5.24167359e-01 -4.73896295e-01 -2.60143071e-01 -3.74774337e-01 +2.57267773e-01 -1.04372688e-01 +1.36230752e-01 -4.36847687e-01 -4.21254694e-01 -1.71212703e-01 -2.20379233e-01 -1.78223401e-01 -1.45444915e-01 +2.44406193e-01 +4.54170853e-02 +6.81108892e-01 -1.33274466e-01 -3.25679272e-01 +8.07029232e-02 +3.73180211e-02 +6.73998743e-02 -1.62747353e-02 +4.13110912e-01 -4.39689755e-01 -2.22649872e-01 -7.14202598e-02 +5.51375389e-01 +1.08966477e-01 +1.67361289e-01 -6.67602003e-01 -1.14535093e-01 -1.60394013e-01 +2.18917280e-01 -3.69802415e-01 +1.66510716e-01 +3.48755419e-01 +7.83599075e-03 +1.33371353e-01 -5.77963769e-01 -5.04207075e-01 -1.78668201e-01 +9.01494920e-01 -7.73862302e-01 +7.45714903e-02 +2.44898289e-01 -2.82116920e-01 -2.51934193e-02 +9.99133959e-02 +3.45251769e-01 +1.16612852e+00 +1.21384755e-01 -3.46289903e-01 -4.61111702e-02 -2.18840260e-02 +4.82403412e-02 +3.32717717e-01 +2.24735290e-01 +6.82381749e-01 -3.53142232e-01 -2.69292891e-02 +3.23647112e-01 -4.80339289e-01 +2.75558710e-01 +2.51781076e-01 +9.47782159e-01 -3.79371345e-01 -9.58663374e-02 -2.16276258e-01 +4.80487704e-01 +1.74916789e-01 -1.52844377e-02 -7.89400578e-01 -1.91046536e-01 -6.22268796e-01 +1.79396436e-01 +4.56094652e-01 +5.94522119e-01 +6.69090450e-01 +5.29563844e-01 +3.13660175e-01 +2.46102840e-01 +3.26562822e-01 +6.37038350e-01 +2.73411959e-01 -4.29294884e-01 -2.42660537e-01 +3.81210372e-02 +2.05842704e-01 +3.09185445e-01 -5.76968826e-02 -6.51211560e-01 +1.10431349e+00 -5.59664428e-01 -3.47019166e-01 +1.00841830e-02 +8.48710239e-01 -5.81543259e-02 +9.48846340e-01 +2.36785352e-01 +6.43535972e-01 +4.03569669e-01 +3.56995054e-02 +3.84301931e-01 +1.92171097e-01 +7.13832259e-01 -2.38373950e-01 -6.65376008e-01 -1.38449699e-01 +1.23878695e-01 +7.65015900e-01 +7.92634562e-02 +4.61314380e-01 +3.90671194e-01 +5.03991425e-01 +2.17594951e-01 +1.18107773e-01 +4.19096231e-01 -4.11716819e-01 -1.26875699e-01 +1.05830334e-01 +5.95280528e-01 -2.83672899e-01 -2.68139988e-01 -9.36151594e-02 -2.08799779e-01 -8.63197327e-01 -1.32471826e-02 -8.06856602e-02 -1.35678515e-01 +7.30730534e-01 -1.76253468e-01 +1.65816396e-01 +6.42998338e-01 -1.55745491e-01 +5.87619305e-01 -1.77887306e-01 +5.36797225e-01 -5.42037249e-01 +6.28291117e-03 +8.72446075e-02 -1.76591039e-01 +7.66456664e-01 -1.58110365e-01 +4.28196162e-01 -3.93617392e-01 +2.95802593e-01 -7.26458728e-02 +3.37009013e-01 -4.37341213e-01 -8.29136223e-02 +5.94663769e-02 -9.91462264e-03 -3.01960170e-01 +4.63693589e-01 -3.35647017e-01 -5.02445877e-01 +5.06836474e-01 +2.17976138e-01 +2.56160170e-01 -6.47647381e-02 -5.21779507e-02 -5.16165018e-01 -4.37129229e-01 +5.45592420e-02 -3.41994055e-02 +1.90359309e-01 -4.62730408e-01 -3.86014402e-01 -6.72578812e-01 +6.64338827e-01 -1.47651002e-01 -6.14260614e-01 +2.17032701e-01 +2.84416854e-01 -1.28398970e-01 -3.72312441e-02 -6.27878606e-01 -1.92816707e-03 -9.87171382e-02 -2.60883182e-01 +3.66891742e-01 +1.70578510e-01 +4.77737069e-01 -5.02926826e-01 +3.38852555e-01 -4.82154399e-01 +2.72976339e-01 -2.37632364e-01 -3.60792905e-01 -4.77481540e-03 +4.32404757e-01 +4.00495440e-01 +3.49187404e-01 +2.99087584e-01 +5.07461846e-01 -3.24352562e-01 +6.66255116e-01 -5.26010215e-01 +2.63907015e-01 +2.59528071e-01 -7.15812668e-02 -8.74117948e-03 +8.48609805e-01 +2.98178524e-01 +5.26676953e-01 +1.32809073e-01 -2.23083375e-03 +9.71417248e-01 +5.71303666e-01 -8.62723663e-02 -1.15019068e-01 +3.64092201e-01 -2.89309453e-02 +7.72757530e-02 +7.42761791e-02 -2.06640914e-01 +5.62027507e-02 -1.68515548e-01 +6.17252529e-01 -3.86727184e-01 -1.72051966e-01 +8.43130589e-01 +3.73992622e-01 -1.35891765e-01 -7.47133017e-01 +4.76951599e-01 +7.94797856e-03 +3.24578762e-01 +1.27155975e-01 -5.06124832e-02 -4.12650079e-01 -6.44655883e-01 +8.35601509e-01 -9.84077454e-02 +3.90855044e-01 +5.59026241e-01 -8.09877813e-02 -3.78842592e-01 -5.57894528e-01 +1.12907386e+00 +6.25135422e-01 -3.52961570e-01 -6.22088425e-02 -3.29647958e-01 +6.94943666e-01 +1.15574356e-02 -2.66305685e-01 -4.68554944e-01 -2.57447094e-01 +4.12809014e-01 +4.75046962e-01 +8.31992850e-02 -5.88620961e-01 +1.04949623e-01 +8.05961847e-01 -6.31541550e-01 -8.50514948e-01 +6.50872111e-01 +4.28535640e-02 +4.49782252e-01 +9.19201449e-02 +1.19041100e-01 -2.21581921e-01 +4.70055878e-01 +3.71261090e-01 +1.19152561e-01 +9.01783854e-02 +2.82813329e-02 +2.86970526e-01 -1.28356069e-01 -4.08571601e-01 -3.91315222e-02 -1.81095436e-01 -1.52474836e-01 +2.03411058e-01 -3.68293911e-01 -2.11021379e-01 -4.91304278e-01 +3.32215756e-01 -2.18618706e-01 +1.94466010e-01 +3.29868138e-01 +3.74656804e-02 -5.62681966e-02 +6.82742223e-02 +4.52903241e-01 +4.69864160e-01 -9.83208790e-02 +2.10274905e-01 -1.52690426e-01 +3.02296937e-01 +8.56275111e-02 -1.37969658e-01 +2.60918051e-01 -1.85785100e-01 +1.86185524e-01 -1.36352792e-01 -9.84199286e-01 -7.38864541e-02 -8.89957473e-02 -6.15135372e-01 +8.77633393e-02 +1.55143170e-02 +6.57625675e-01 +1.79141849e-01 +8.87092277e-02 -5.90792120e-01 -6.34226441e-01 -6.08963013e-01 +9.90342721e-02 +1.20383278e-01 +2.94242024e-01 -3.05559307e-01 -2.20114380e-01 +2.29208723e-01 -3.11645001e-01 -3.82423662e-02 +3.59729826e-01 +3.81031632e-01 -8.50076899e-02 +4.58667010e-01 +6.72544181e-01 +7.57621944e-01 +6.71767369e-02 -1.55485123e-01 -4.39967066e-01 +5.95254421e-01 +3.51855606e-01 +4.04502312e-03 +6.47619009e-01 +2.82669783e-01 +1.66000202e-01 +6.47221088e-01 +4.77196008e-01 +2.92179495e-01 +3.62498820e-01 +1.33872703e-01 -4.62019771e-01 -5.65103650e-01 -7.74287656e-02 +8.09478879e-01 -4.50485796e-01 +6.04792714e-01 -4.36415300e-02 +9.47838783e-01 -1.20598769e+00 -3.40212077e-01 -3.31988394e-01 -4.85587679e-02 -8.42013434e-02 -3.29975396e-01 +6.74659431e-01 +6.22737169e-01 -4.46528524e-01 -3.02924383e-02 -2.85313636e-01 +1.09828460e+00 -3.63014787e-02 +1.54747412e-01 -3.47491175e-01 -2.21401230e-01 -9.64558184e-01 -4.48526591e-01 +7.10570872e-01 -6.52186051e-02 +1.02518164e-01 -1.23488091e-01 +5.41102171e-01 -1.37231946e-01 +2.21412122e-01 +1.36354581e-01 -4.23465490e-01 +7.54676312e-02 -6.75158441e-01 +2.58576512e-01 +7.05381989e-01 +3.74915630e-01 +2.94426996e-02 -1.63604349e-01 -1.37034804e-01 +4.99697387e-01 +1.96415067e-01 +9.70536098e-02 +7.94377550e-02 +2.23858550e-01 +3.64163518e-01 -2.18806505e-01 +6.24687612e-01 +8.59180093e-01 +7.92129710e-02 +4.02255207e-01 +2.66315132e-01 -2.44384259e-01 -9.32950899e-02 +5.74625194e-01 +3.26166004e-01 -1.92198351e-01 +1.55261699e-02 +4.83726472e-01 +4.85240459e-01 -1.53504193e-01 -5.11161745e-01 +3.34289491e-01 +2.44371239e-02 +1.35546280e-02 +5.36717623e-02 -2.23763287e-02 -2.80856460e-01 +6.41779676e-02 +2.98243344e-01 +7.74460971e-01 +7.46211231e-01 -1.90928224e-02 -7.27989435e-01 +2.33628929e-01 +5.50823845e-02 -3.07043135e-01 +4.16891217e-01 +3.20710450e-01 -1.36191711e-01 +8.88432143e-04 -1.72710925e-01 +5.00117064e-01 +8.48900199e-01 +4.09333110e-01 -4.40371335e-01 -2.12461233e-01 -3.14087063e-01 +6.60797298e-01 -9.65903178e-02 -4.46162403e-01 +3.13106388e-01 -4.92683411e-01 -7.83336639e-01 +2.58814991e-01 +3.43833834e-01 +4.59161073e-01 +3.33701640e-01 -1.21270850e-01 -1.49680987e-01 -3.26826006e-01 -2.66442657e-01 +8.89655709e-01 +6.45967841e-01 -5.31190932e-01 +3.90678644e-01 -7.34165072e-01 +2.11642951e-01 -4.88129407e-01 -2.27862403e-01 -4.92710285e-02 -3.06766629e-01 +1.22209445e-01 -3.55023861e-01 -5.97459674e-01 -9.50768813e-02 -1.68224946e-01 +3.19667235e-02 +4.70006734e-01 -4.47200567e-01 -5.16886115e-01 -1.10297799e+00 +2.71495551e-01 -2.77805924e-01 -2.94401944e-02 +9.03704345e-01 -3.52802813e-01 +9.64042395e-02 -2.95878887e-01 +4.77747679e-01 -9.40042734e-01 -5.34524918e-01 -2.75899351e-01 +5.82028091e-01 +6.27157688e-01 -1.00164652e+00 -1.33641005e-01 -3.43331158e-01 +4.53395844e-01 -2.45962366e-01 -7.89400101e-01 +8.95652622e-02 -7.59006619e-01 -5.44217765e-01 -8.87571573e-01 +1.83015406e-01 -2.13230774e-01 +5.38360119e-01 +2.13673264e-01 +5.65282226e-01 +6.09264672e-01 +2.16882378e-01 +1.30083352e-01 -1.24016631e+00 -1.64103523e-01 -6.79970682e-01 +5.67906350e-02 -3.00052464e-01 +3.00691366e-01 +3.88155162e-01 +8.21518779e-01 +9.73156154e-01 +1.21615991e-01 -8.68807286e-02 -3.34190577e-01 +7.79740274e-01 +7.24149346e-01 +2.63404846e-01 -6.66014969e-01 +2.81472236e-01 +2.53880858e-01 -1.62254423e-01 -7.96673670e-02 -7.89765298e-01 -2.41350383e-01 -5.51818192e-01 -3.69345784e-01 +4.09963122e-03 -4.32744436e-02 +4.25741345e-01 -3.49591762e-01 +4.77200389e-01 -2.66999394e-01 -2.76073813e-01 -4.56372857e-01 -2.26099834e-01 -5.96995413e-01 -2.06721332e-02 -1.73005626e-01 +2.35887080e-01 +7.60857537e-02 -1.99418113e-01 +4.00493711e-01 -4.52249467e-01 +1.69012293e-01 -2.15635657e-01 +4.41442318e-02 -3.19165796e-01 +2.64974982e-01 -3.06602586e-02 +8.54592621e-02 +5.92157170e-02 +3.21366191e-01 +3.53202611e-01 +1.00928687e-01 +2.74617761e-01 +2.98709512e-01 +8.56064707e-02 -2.69457996e-01 -3.24546725e-01 +3.24182272e-01 -4.35678035e-01 -1.09379418e-01 -2.17409715e-01 -2.89993696e-02 +1.66532353e-01 -1.19167231e-01 -2.29951441e-01 +2.10374653e-01 -9.28902805e-01 +6.81949615e-01 -9.58450325e-03 -1.67556912e-01 -3.00272070e-02 +4.48644489e-01 -7.71218896e-01 +8.65570903e-02 -1.56937924e-03 +8.55773985e-02 +2.03902721e-01 -8.44947398e-01 +4.34253365e-01 +2.27521256e-01 -2.81151980e-01 -5.07825732e-01 -1.09372109e-01 +2.54491091e-01 -4.74128217e-01 +3.22052330e-01 +6.81712806e-01 -3.39995563e-01 +2.23974496e-01 -2.86439992e-02 -4.08954471e-01 -1.33624053e-04 -3.17092568e-01 -8.51172090e-01 +1.44618511e-01 -2.80842215e-01 +1.04859316e+00 -1.87150896e-01 +2.88586468e-01 -2.21737072e-01 +1.96282312e-01 +4.81345087e-01 +4.59993392e-01 -7.98304319e-01 +3.83550525e-01 -8.08223337e-02 +2.27503270e-01 -6.47724748e-01 +1.51073352e-01 -5.87870888e-02 +5.74649692e-01 -3.19763035e-01 -2.12834939e-01 +6.01623416e-01 -5.41277945e-01 +6.38459846e-02 -3.81718390e-02 +9.08085585e-01 +4.96180594e-01 -4.90925848e-01 -3.08891565e-01 -2.60455925e-02 -4.96760430e-03 -5.76108158e-01 +2.52926111e-01 -1.32177919e-02 -9.13715243e-01 +4.25685704e-01 +5.01277387e-01 +3.20349425e-01 -6.00001693e-01 -1.24424890e-01 +4.12781388e-02 +4.62594591e-02 +6.11898661e-01 +3.89523655e-01 +1.00801036e-01 +2.65976548e-01 +1.07384726e-01 +5.06524444e-01 -5.31938910e-01 -1.58289462e-01 -3.04285765e-01 -5.26057661e-01 -6.94154575e-02 -2.58743554e-01 +3.66861582e-01 +4.62769479e-01 -5.84793806e-01 +7.35231578e-01 -2.47670472e-01 -4.43541974e-01 -4.89368945e-01 -8.97554278e-01 -5.23995996e-01 +5.63733950e-02 +4.75164913e-02 -5.41048646e-01 -9.72505286e-02 +3.80806386e-01 +8.12006742e-02 +4.22671050e-01 +6.00431003e-02 +8.18703473e-02 +8.92951071e-01 +7.53875673e-02 -2.61997104e-01 +1.79211095e-01 -1.75178424e-02 -1.63138155e-02 +5.94002664e-01 -1.26379669e-01 -1.53001502e-01 -6.28076494e-01 -5.27362645e-01 -3.49139124e-01 +8.69027197e-01 -1.79768160e-01 +5.14495313e-01 +1.73391134e-01 -5.55057041e-02 -1.16084199e-02 -3.15011442e-02 -9.08558249e-01 +1.67186990e-01 +5.14503777e-01 +2.36768514e-01 -2.08579287e-01 -1.92853972e-01 
#Parameter# /vanilla-lstm-builder/_1 {128,32} 65537 ZERO_GRAD
+7.23412156e-01 +3.31867665e-01 +9.04952824e-01 -2.91948408e-01 +3.51120770e-01 -2.04216063e-01 -7.33941734e-01 +6.47443771e-01 +5.21514937e-02 +2.53038913e-01 -7.20090270e-01 -3.15364450e-01 +2.19236180e-01 +3.41488570e-01 -7.10947290e-02 -2.31510311e-01 +1.52415231e-01 -1.03631124e-01 +4.43282634e-01 +2.82847524e-01 +6.19703531e-01 +8.69971886e-02 -3.51665728e-02 +7.69874975e-02 +1.61050454e-01 +2.90347695e-01 +3.42364788e-01 +5.00275716e-02 +3.01528543e-01 -2.25368347e-02 -7.18011567e-03 -4.69018668e-02 -1.86450779e-02 -3.63993794e-01 -3.19357514e-01 +6.10689342e-01 +3.72701466e-01 +5.59300482e-01 -2.19395205e-01 +2.71400094e-01 -5.46711087e-01 +3.81012529e-01 -3.55620086e-01 +2.73066372e-01 +2.47546256e-01 -5.42988658e-01 -5.93123674e-01 -4.72459868e-02 +1.01856148e+00 -3.05234820e-01 +2.27806680e-02 -8.94194245e-01 +2.18620133e-02 +1.27484038e-01 +4.46014673e-01 -2.61893291e-02 +2.64355261e-02 -3.48430514e-01 +4.12762642e-01 -1.13628097e-01 -3.49211022e-02 +4.14462566e-01 +1.56574249e-01 -1.08808219e-01 +3.28077637e-02 -1.48054302e-01 +4.39142168e-01 +1.89371035e-01 +6.34239256e-01 +3.59455794e-01 -5.85094541e-02 +3.11608583e-01 -8.26781318e-02 +2.76245117e-01 -3.54532212e-01 +2.08298713e-01 +5.36059558e-01 +5.87992311e-01 -5.84911481e-02 +1.73582971e-01 +1.23868234e-01 +1.51092768e-01 +2.03009203e-01 -5.73473692e-01 +2.75720954e-01 +2.07251847e-01 +5.05286098e-01 +5.72202921e-01 +3.73881161e-01 -1.06909752e-01 +5.28459311e-01 +8.75520647e-01 +2.40308598e-01 +2.85286874e-01 +2.00671051e-02 -3.07705998e-01 -1.95508137e-01 +4.20957834e-01 -2.81908989e-01 -5.39835274e-01 -4.45788473e-01 +2.86314730e-02 -2.28407577e-01 -4.39531170e-02 -3.71968061e-01 +5.64283766e-02 -7.50505805e-01 +6.77991956e-02 -5.67837417e-01 -2.34815538e-01 +1.52175967e-02 +3.06681603e-01 -8.70743841e-02 +3.77637595e-01 +5.15039921e-01 +4.07457650e-02 +4.23598945e-01 +1.86004996e-01 -1.45127892e-01 +2.29011491e-01 +7.52286494e-01 -5.38288176e-01 +1.56845331e-01 -6.69605583e-02 +1.08874284e-01 +1.80159226e-01 -1.34237902e-02 -4.46136206e-01 -3.26781273e-01 +1.02659598e-01 -2.43471358e-02 +1.38692141e-01 -5.91901839e-01 -1.43394560e-01 -3.53713244e-01 -2.42794514e-01 +3.59820783e-01 +4.41436261e-01 -1.22755162e-01 -7.38778412e-01 -6.06918857e-02 -2.09620684e-01 -5.77218831e-01 +5.06421685e-01 -1.23031867e+00 +3.63621898e-02 +2.79621392e-01 -2.06549391e-01 -3.23276252e-01 -1.84758231e-01 +2.86025822e-01 -5.25887132e-01 +2.57425338e-01 -2.78066367e-01 +1.45818368e-01 +3.30370843e-01 +3.07942867e-01 -5.45253873e-01 -8.52714553e-02 +2.19259977e-01 -1.33860871e-01 -6.41764253e-02 +2.25903422e-01 +1.11045666e-01 -1.68513536e-01 +6.24379329e-02 +2.14033991e-01 -9.58331600e-02 +2.35286951e-01 +6.51587173e-02 +3.11094224e-01 -1.14776626e-01 -4.94029522e-02 +1.12121806e-01 +3.70985478e-01 +4.08581980e-02 -2.01058045e-01 -9.13015068e-01 -1.04173303e-01 +7.37137735e-01 +3.96790981e-01 +3.20005082e-02 +1.81149676e-01 +1.87961504e-01 +2.64942288e-01 -3.14898491e-01 +5.67158125e-02 +1.15756122e-02 +5.27752101e-01 +1.79398239e-01 -9.93302837e-02 +2.94201225e-01 -5.36012277e-02 +3.44640156e-03 -3.84539396e-01 -1.34125665e-01 -4.04523998e-01 +1.64823577e-01 -1.38364673e-01 -4.80001241e-01 +5.65356277e-02 +1.87385097e-01 -2.33475208e-01 -1.04241621e+00 +1.19214416e-01 -3.41807246e-01 -7.95024514e-01 -3.74555439e-01 -1.00301825e-01 -3.20542872e-01 -2.46566273e-02 -3.31512958e-01 +9.02709290e-02 +3.73573482e-01 +4.47210193e-01 -4.33680028e-01 -6.90387189e-02 -1.01674246e-02 -5.21787345e-01 -1.24585479e-01 +2.94327080e-01 -1.96642950e-01 +2.39433542e-01 -3.53795201e-01 -5.69144785e-01 +6.10724390e-01 +4.74452302e-02 +4.84492123e-01 +2.72189677e-01 +4.72227961e-01 -2.06257954e-01 -2.65537381e-01 -1.43597007e-01 +1.67748466e-01 -1.24579899e-01 -7.03015924e-02 +5.33257782e-01 -1.22518770e-01 +6.13844432e-02 -5.26583970e-01 +3.24838191e-01 -5.01855373e-01 -2.03072682e-01 -1.15478905e-02 +8.99901688e-02 +5.64412534e-01 +7.70343721e-01 -6.82287216e-01 +1.00874119e-01 +4.55260798e-02 -6.13395423e-02 +3.38972539e-01 -2.71343499e-01 +2.69917279e-01 -4.84921545e-01 -2.38253757e-01 -3.87446433e-01 -6.42902374e-01 +1.03704520e-02 +1.34276509e-01 +3.52412969e-01 +1.02980874e-01 -4.14553545e-02 +8.94293562e-02 -1.30134791e-01 -6.61030710e-02 -2.43112054e-02 +3.29329163e-01 -1.08495792e-02 -2.09822491e-01 -3.03671420e-01 -1.15579717e-01 -2.51151860e-01 -2.96799183e-01 +3.77000077e-03 -5.72764933e-01 +2.44756564e-01 +2.27245718e-01 -3.33511502e-01 -1.77884892e-01 +2.08881587e-01 -1.37460634e-01 -7.62393326e-02 +6.41257614e-02 +1.80931240e-01 +4.53456402e-01 -6.49533093e-01 +3.23353708e-02 +1.11184884e-02 -1.00602651e+00 -3.31745863e-01 -5.76194562e-03 -2.48216063e-01 -4.38972831e-01 -1.49975091e-01 -3.10505688e-01 +5.93811609e-02 -1.85558096e-01 +2.40441620e-01 +4.34378982e-01 -2.14867294e-01 -4.18546796e-01 -1.78651899e-01 -9.90006268e-01 -4.00632352e-01 +2.21002996e-01 -2.34060556e-01 -2.00978026e-01 +6.16962254e-01 -5.42484641e-01 -7.10326359e-02 +2.36712396e-02 +4.46226209e-01 -4.91285808e-02 -7.21230984e-01 -6.25073314e-01 +5.76233447e-01 +2.62356848e-01 -1.04619600e-01 +3.71451169e-01 +4.66212630e-01 -6.95990026e-02 +1.36665747e-01 +1.52695164e-01 +1.97304487e-01 +1.31191671e-01 +1.10420890e-01 -1.05084680e-01 -3.08748186e-01 -4.54523712e-01 +3.07727367e-01 -1.30396575e-01 +2.45202184e-01 -1.29114240e-01 -5.22053838e-01 +1.11537382e-01 -5.86400151e-01 -4.76014577e-02 -1.41960025e-01 -2.57575631e-01 -2.25326985e-01 -3.47733617e-01 -1.79662541e-01 +1.63807422e-01 +4.12516654e-01 -5.62853040e-03 -5.20509005e-01 -4.60842282e-01 +5.39726496e-01 +1.61938637e-01 -2.53565282e-01 +4.51836288e-01 +2.69724041e-01 -1.56530906e-02 +3.18974227e-01 +5.74573549e-03 -5.04714906e-01 +3.09418887e-02 +7.42442846e-01 +1.66756570e-01 +3.08759242e-01 -4.33263093e-01 -1.82086051e-01 -8.46529603e-02 +2.50454694e-01 +1.26127392e-01 +3.37777883e-01 +8.31912935e-01 +4.44813877e-01 -7.22506419e-02 +1.62397493e-02 +2.55294740e-01 +3.30742508e-01 +4.69166972e-02 -4.25664522e-02 +3.98015469e-01 -4.94164936e-02 +1.62445083e-01 -2.90461540e-01 +6.14483535e-01 +1.32314637e-01 -4.76785332e-01 +9.69705507e-02 +7.87987411e-02 -3.53278875e-01 +1.20610610e-01 -1.42457038e-01 +5.49421966e-01 +2.84933895e-01 -3.69687602e-02 -3.96038532e-01 +3.75639528e-01 +1.71989188e-01 +3.72246802e-01 +5.61682284e-01 +3.21464956e-01 -4.96397346e-01 +2.67935067e-01 -6.59463704e-02 -3.46109569e-01 +6.74149096e-01 +5.28181493e-02 +2.26751328e-01 -6.16863787e-01 -1.70901582e-01 -5.91192007e-01 -5.38695097e-01 +2.47577783e-02 +2.30037585e-01 +2.36111712e-02 +1.16614997e-01 -9.46249589e-02 -4.36320066e-01 +1.56201035e-01 -3.35477293e-01 +2.76146107e-03 +1.92466572e-01 -8.31422508e-01 +2.98310578e-01 -2.73594171e-01 +5.37208498e-01 -4.03461069e-01 -3.68139483e-02 -8.95901620e-02 +4.70625907e-02 -7.86634609e-02 -1.02589183e-01 +4.66623679e-02 -2.67841846e-01 +1.50629133e-01 -5.50522029e-01 -4.85453933e-01 -2.36735940e-01 +2.45431572e-01 +4.83262390e-01 -6.74638391e-01 +7.28698671e-01 -2.00660471e-02 -1.92114681e-01 -3.16447854e-01 +2.11313680e-01 -2.40253687e-01 -4.32139009e-01 +5.90152860e-01 +6.57407800e-03 +2.04192862e-01 -7.75759146e-02 +2.09688142e-01 -1.94913760e-01 -1.63372308e-01 -6.00679338e-01 +8.17779154e-02 -5.29799283e-01 +5.71657382e-02 +3.36673297e-02 +3.06021273e-02 -1.59713745e-01 -1.75648153e-01 +4.46655661e-01 -3.19983274e-01 -5.53268611e-01 +2.77452543e-03 -3.41640621e-01 +1.32031180e-02 +6.78051829e-01 +9.84639078e-02 -2.41192237e-01 -9.67573404e-01 +3.18019062e-01 -5.79623401e-01 -4.44920093e-01 -3.76095206e-01 +2.09855750e-01 -1.95813313e-01 -1.39640465e-01 -5.13049424e-01 +1.18840478e-01 +1.55079976e-01 -2.49616742e-01 +4.69972715e-02 +4.28356349e-01 -7.49736607e-01 +1.82500333e-02 +1.02107115e-01 +8.70382547e-01 -2.92947978e-01 +9.22330141e-01 -1.53870717e-01 +5.93704522e-01 -4.93950218e-01 -1.93730474e-01 +6.28616754e-03 +3.32194120e-01 +5.51733911e-01 -1.19170368e-01 +1.27150917e+00 -1.46314472e-01 -3.05915147e-01 -9.34547067e-01 -2.84898251e-01 +4.97069001e-01 -1.60061345e-01 +1.22044452e-01 +8.88158977e-02 -2.58366466e-01 +9.01557267e-01 -3.91701192e-01 +7.22642124e-01 -8.59465748e-02 +7.73886144e-01 +4.94063467e-01 -2.44506255e-01 +5.16604558e-02 -4.51442182e-01 -3.88584822e-01 +5.10077365e-02 -7.62977481e-01 -2.50389073e-02 -1.51937395e-01 -6.42553389e-01 -1.71124443e-01 -1.58125609e-01 +2.64493257e-01 +3.19284201e-01 +2.20007941e-01 -2.95117438e-01 -6.13097623e-02 -1.43598989e-01 -6.35375440e-01 +2.60516834e-02 -5.53898573e-01 -1.62635520e-01 -2.68105567e-01 +3.56181562e-01 +1.52638614e-01 -1.62187129e-01 +1.28706038e-01 +3.13553095e-01 -6.54917777e-01 -8.03657651e-01 +1.61312133e-01 -9.20136273e-02 -1.72531575e-01 -5.36478698e-01 -7.93367997e-02 +2.13611677e-01 -8.30591977e-01 +1.77981660e-01 -1.28005743e-01 -1.77968010e-01 -6.35108426e-02 -1.35563147e+00 -2.04695985e-01 -1.74530417e-01 -2.47820348e-01 +5.03183343e-02 -5.30368745e-01 +4.62240130e-02 -2.24106416e-01 -2.16834441e-01 -7.30158567e-01 -3.72282952e-01 -3.66014212e-01 +2.14259818e-01 -3.33957911e-01 -5.31453431e-01 -4.03434187e-01 +4.81181949e-01 +1.01043716e-01 -3.26885313e-01 -5.71812630e-01 +1.29067406e-01 +8.51265490e-01 -3.04270297e-01 +3.32649499e-01 +2.77563155e-01 -5.45091510e-01 -5.43820143e-01 -7.45594859e-01 -1.43181592e-01 -2.97704250e-01 -3.64961982e-01 -6.18953586e-01 -8.85844231e-01 -3.16985846e-01 -2.65424341e-01 +3.39431405e-01 +1.89091787e-01 -3.46452929e-03 +2.10180372e-01 -6.37449417e-03 -4.14648741e-01 -3.92937869e-01 +1.62220433e-01 -5.04076302e-01 -2.34478991e-02 -4.40238357e-01 -3.60016078e-01 -1.45738527e-01 -2.26797432e-01 +6.08224571e-01 -1.67714328e-01 -2.97223926e-01 -9.02828276e-01 +1.17619365e-01 -3.08320433e-01 -2.99505740e-01 -3.12414020e-01 -7.07054436e-02 +8.95427540e-03 +2.88705111e-01 -7.88986802e-01 -1.47400364e-01 -7.09075212e-01 +5.91546237e-01 -4.38007973e-02 +2.95333236e-01 -9.21883047e-01 -3.67807783e-02 +6.00713193e-01 -2.16760308e-01 -1.48803979e-01 +4.04766828e-01 -1.58335105e-01 -5.10569334e-01 +1.09983362e-01 +4.38201070e-01 -3.07984650e-01 -1.74598753e-01 +2.12647036e-01 -1.07497284e-02 +4.04605627e-01 +3.81254375e-01 +2.05454007e-01 -1.13353930e-01 +4.57184404e-01 +2.58839995e-01 +2.88882524e-01 +2.46384054e-01 +4.68079783e-02 -1.07054159e-01 +4.46628809e-01 +2.04490572e-02 +3.38615954e-01 -1.05994172e-01 -3.49407010e-02 +8.99935290e-02 +2.11507052e-01 +1.05365768e-01 +1.10915653e-01 +8.07413816e-01 +4.42359924e-01 -3.35676335e-02 +4.83747631e-01 +1.24651134e-01 -8.37764889e-03 +8.29008758e-01 +9.87894908e-02 +4.06629235e-01 +6.37077540e-02 -2.05034018e-01 -4.34961259e-01 +2.13632822e-01 +8.86176705e-01 +2.57956266e-01 -2.86790937e-01 -2.64330357e-01 +1.33180663e-01 +2.12516978e-01 +4.27421153e-01 +4.20838803e-01 +5.85090220e-01 +5.14185369e-01 +6.07672393e-01 +2.53086090e-01 +2.65992910e-01 -3.28561515e-01 -2.99924165e-01 +3.96466911e-01 -3.81556988e-01 -4.70272034e-01 -2.33648911e-01 -5.26976049e-01 -6.59015894e-01 -1.81136459e-01 +2.07148120e-01 -3.54697585e-01 +3.77502769e-01 -3.67397398e-01 -4.42936383e-02 +4.62356776e-01 -2.06610113e-01 +4.50391740e-01 +1.27274781e-01 -8.85974765e-02 -4.60614741e-01 +8.03693473e-01 -4.35488746e-02 -4.92496252e-01 +1.69719100e-01 +4.17194068e-01 +2.18232110e-01 +7.93416332e-03 +9.33810115e-01 -1.20744839e-01 +4.41640466e-01 -3.70728821e-01 +5.93050607e-02 -6.50645077e-01 -2.11894929e-01 +3.34676087e-01 +5.04536033e-01 -3.55153382e-01 -4.29562211e-01 +5.04919291e-01 -4.43924010e-01 -1.14020221e-02 +8.18537250e-02 +3.00539494e-01 -3.93843800e-02 -4.40308377e-02 +3.02787304e-01 +1.70900315e-01 -3.88455063e-01 +3.07115972e-01 -2.81837493e-01 +1.98834881e-01 +2.85615116e-01 +1.95302144e-01 +4.68197793e-01 -3.28669906e-01 -2.46956706e-01 +3.80810171e-01 +1.20755561e-01 +6.02257192e-01 +5.07312179e-01 +4.25338089e-01 -5.43448389e-01 -4.34068888e-01 +4.71534431e-01 +4.63682413e-01 +1.59853250e-01 -1.82780132e-01 -4.59647477e-01 +2.90959299e-01 -3.23716402e-01 -4.20606703e-01 -2.42944717e-01 +3.77985179e-01 +1.10878038e+00 -6.14073694e-01 +8.47465396e-01 -6.50772214e-01 +6.05719566e-01 -6.32081866e-01 -4.18692559e-01 +7.07061708e-01 +2.45234549e-01 +8.97656918e-01 -1.71376646e-01 -9.12418187e-01 +6.87022924e-01 -4.27620292e-01 +1.49420395e-01 -1.18862353e-01 +6.48372546e-02 -6.23252019e-02 +1.39090978e-02 +4.53069299e-01 +3.29761505e-02 +4.97665912e-01 +7.10220858e-02 +5.54874539e-01 +5.09485826e-02 -4.22161594e-02 +2.80454189e-01 -2.79347211e-01 -1.78737059e-01 +1.35106802e-01 +3.70778769e-01 +1.33417219e-01 -1.21317685e-01 +3.88463400e-02 -5.09804547e-01 +1.17347026e+00 +1.73842043e-01 -5.13633601e-02 +1.72283743e-02 -5.02083778e-01 +1.89784199e-01 -1.10029712e-01 -1.55864721e-02 +2.88267463e-01 +7.47590587e-02 +9.53843817e-02 -3.84024203e-01 +3.29272039e-02 +2.59743303e-01 -5.80426216e-01 -1.60052165e-01 -3.68353903e-01 -4.17771697e-01 -4.53313887e-01 -4.09802288e-01 +1.67630240e-01 -1.78522900e-01 -2.43427515e-01 +8.02374184e-02 -4.29591268e-01 -2.68746495e-01 -1.81264743e-01 +2.84142792e-01 -3.17630351e-01 -5.20955920e-01 +7.26542175e-02 -4.31585521e-01 -3.95618558e-01 +3.63725930e-01 -2.16375381e-01 -1.15484588e-01 +2.48664290e-01 -1.74669415e-01 -1.49057182e-02 +3.81028175e-01 -5.48233509e-01 +2.12242112e-01 -7.25059509e-02 -3.49398345e-01 -1.11985847e-01 +3.71490061e-01 -6.92057312e-02 +8.00723583e-02 +2.66910046e-01 -1.00911029e-01 +6.37111187e-01 +2.18814105e-01 +3.21593404e-01 -1.29159465e-01 +3.38090956e-01 -2.09675446e-01 +1.38271600e-01 -2.12895811e-01 +1.93192050e-01 +6.19523704e-01 +7.15352744e-02 +6.02386035e-02 +1.83037534e-01 +1.04342468e-01 +5.53706408e-01 +3.46533984e-01 -4.66174752e-01 +2.57902086e-01 -4.89257991e-01 -6.38847589e-01 -1.13570206e-01 +2.18090862e-02 -2.00167760e-01 -2.69873142e-01 +1.50939792e-01 -6.98271617e-02 +1.81553587e-01 +5.07701933e-01 -4.84033376e-01 +2.97856361e-01 -1.26381099e-01 -1.44014120e-01 -4.69983965e-01 -9.84176323e-02 -3.63505334e-01 -1.77408844e-01 +6.03507236e-02 -3.74420226e-01 -4.39651124e-02 +3.45729381e-01 -2.00832725e-01 +4.59608808e-02 -6.68111444e-01 -4.40396480e-02 +7.87518144e-01 +1.23506822e-01 -2.40881816e-01 +1.28257170e-01 +3.88987809e-02 -7.20997527e-02 -2.03455333e-02 -7.92078137e-01 -3.81817758e-01 +5.04483402e-01 +2.54371405e-01 +3.93961281e-01 -1.76908039e-02 -3.59506875e-01 +1.37245566e-01 -4.45404440e-01 +5.83450757e-02 +1.20840423e-01 +5.25112808e-01 -5.30182958e-01 -1.14574254e+00 -3.94459516e-01 -5.60057163e-01 +8.03506076e-02 -1.99374318e-01 -1.04482532e-01 -7.97385693e-01 -9.26090360e-01 +3.66059959e-01 +2.91435629e-01 -5.84241629e-01 -4.69020486e-01 +1.51001707e-01 +5.64973913e-02 +1.25866428e-01 -3.98344904e-01 +4.52005953e-01 -1.64799556e-01 -1.04567505e-01 -7.41813332e-02 -4.93020743e-01 +2.66078144e-01 -4.84381914e-01 -3.97543222e-01 -8.37902188e-01 -3.50758314e-01 +2.85567999e-01 -3.98999006e-01 -3.69624197e-01 +2.15215504e-01 +1.25317708e-01 -6.91644996e-02 -1.31259680e-01 -1.24703512e-01 -1.13458119e-01 -5.78308813e-02 -1.87933668e-01 -7.55739436e-02 -1.71016842e-01 -2.52101541e-01 -5.47015369e-02 +5.81983745e-01 +1.04822524e-01 -2.12330222e-02 -8.03332478e-02 -3.13749075e-01 +2.89595783e-01 +2.12711751e-01 -1.13143243e-01 -2.23150209e-01 -6.81539774e-01 -5.82525432e-01 -5.14278971e-02 +2.93178648e-01 +3.10306400e-01 -6.89526945e-02 -2.68029392e-01 -1.05023229e+00 -4.57818322e-02 -3.18962365e-01 +1.21724665e-01 +9.62658785e-03 +9.86469910e-03 -5.21099329e-01 -2.47116119e-01 -3.94718975e-01 -3.20345499e-02 +1.14752203e-01 -5.90439700e-02 +2.20183060e-01 -1.05813086e-01 -1.92037791e-01 +3.47734600e-01 +1.96146891e-01 -1.60922140e-01 -7.16436058e-02 +1.16102450e-01 +2.38953263e-01 -5.17137289e-01 -2.77595818e-01 +5.36651731e-01 +6.55250192e-01 -7.57849276e-01 -7.92043090e-01 +1.83514073e-01 -6.67855889e-02 +6.12193905e-02 -3.57102454e-01 -6.90423071e-01 -8.46157193e-01 +1.84482530e-01 -9.00325954e-01 -8.34568977e-01 -7.33845308e-02 +1.02912016e-01 +3.12967338e-02 +3.29210818e-01 -2.83242941e-01 -4.56730157e-01 +1.42901525e-01 -3.14709127e-01 +5.63491046e-01 -5.59519231e-01 +4.16962206e-02 +3.92744869e-01 -5.98230600e-01 -4.56954129e-02 +3.34853567e-02 +2.26265900e-02 +1.72422260e-01 +2.14856312e-01 -3.52828920e-01 +2.84354568e-01 +2.38094538e-01 -2.90524870e-01 +4.63554174e-01 -1.07631385e-02 -7.33697638e-02 +1.82263985e-01 -2.35661849e-01 -1.31605536e-01 -8.26589689e-02 -1.96395516e-01 -5.08247197e-01 -2.37396434e-01 +3.48113507e-01 +3.61406475e-01 -2.64897466e-01 +3.73233914e-01 -1.87327504e-01 +1.82234377e-01 -2.19407097e-01 -4.06770855e-01 -8.35050792e-02 +2.10076794e-02 -3.53206247e-01 -5.70097446e-01 -1.59479290e-01 -3.76147151e-01 +4.23469514e-01 -1.81956500e-01 -5.38774490e-01 +9.31620777e-01 +1.66215450e-01 -4.58312005e-01 -3.28691393e-01 +2.60995179e-01 -9.02650282e-02 -2.54350871e-01 +1.62398696e-01 +4.09637392e-01 -1.10658787e-01 +3.85206074e-01 -9.32700001e-03 -1.95008412e-01 -9.64160934e-02 -3.53932410e-01 +9.85624343e-02 -3.10835481e-01 -4.84114289e-01 -1.07761055e-01 -3.42409194e-01 +4.85454470e-01 -3.40958387e-02 -5.24453402e-01 +1.40941963e-01 -2.31134772e-01 -1.31185532e-01 +4.37224656e-02 +1.81605414e-01 +7.01243579e-02 -1.76964924e-01 -4.29796129e-01 -4.80899274e-01 -2.48265535e-01 +3.96192372e-01 -1.50300995e-01 -7.48311758e-01 +1.84152007e-01 -3.12895328e-01 -1.32488549e-01 +2.71586090e-01 -5.60999997e-02 -1.43413946e-01 -1.86308399e-01 -1.60155669e-01 -3.76523018e-01 +2.86559790e-01 -2.86623556e-02 +7.53716305e-02 +2.58533835e-01 -1.69770986e-01 +4.12777305e-01 -1.20260119e-01 +6.46263719e-01 -1.93792164e-01 +3.46441418e-01 -3.89751703e-01 -2.64066786e-01 +4.09065299e-02 -5.54472089e-01 +2.76016742e-01 -1.57553896e-01 -2.71367848e-01 +4.43510637e-02 +4.19173278e-02 -1.02440953e-01 +1.23145036e-01 -5.36218584e-01 -1.50849417e-01 -5.20130813e-01 -5.82005441e-01 -3.53342980e-01 +5.42745590e-01 +5.67543626e-01 -4.30031300e-01 -4.48002405e-02 -9.09703150e-02 -3.09453309e-01 +2.90948272e-01 -3.75446647e-01 -1.03454143e-01 +2.93846667e-01 -5.22257268e-01 -2.47114792e-01 +5.06377816e-02 -3.35086584e-02 -4.63874519e-01 +5.99552751e-01 -2.71557003e-01 -3.52389216e-01 +3.48668903e-01 -4.02551264e-01 -1.58035532e-01 -3.75427634e-01 -5.24981471e-04 +4.22442943e-01 +4.83149678e-01 -2.54679233e-01 +2.45841503e-01 -3.18833053e-01 +7.74191096e-02 -1.31831225e-02 -8.11490774e-01 -4.16122615e-01 +2.13399604e-01 +4.63371783e-01 +4.21638936e-01 +2.55710967e-02 +2.24070121e-02 +4.67127383e-01 +1.60213351e-01 +1.72378942e-01 -9.66151282e-02 +1.66834425e-02 +2.88947672e-01 -6.42070055e-01 +2.69484907e-01 -3.54234844e-01 +2.76080638e-01 +3.78122963e-02 +3.67788762e-01 -3.09304804e-01 -1.33903384e-01 -1.37691215e-01 -3.76139164e-01 +2.56572068e-01 -1.02241635e-01 +1.85300231e-01 +2.06294253e-01 -4.45745856e-01 -3.09541039e-02 +5.69657326e-01 -8.69808942e-02 -1.81080565e-01 -2.54311841e-02 +1.72337338e-01 -7.01619461e-02 -1.62314307e-02 +2.19870925e-01 -2.38492727e-01 +4.57870439e-02 -2.16616079e-01 -2.67397672e-01 +5.49682081e-01 +1.56999454e-02 +1.77599043e-01 +7.53438354e-01 +1.33894950e-01 -1.19140625e-01 +1.68337464e-01 -2.76397884e-01 +5.02903342e-01 +3.67847085e-02 +1.46946430e-01 -1.56535774e-01 -1.32897252e-03 -6.23802058e-02 +7.28059784e-02 +1.40817314e-01 +4.13393676e-02 +7.05590069e-01 +3.01281124e-01 -9.09591168e-02 +1.09286129e-01 -3.46341252e-01 -6.35556459e-01 +3.19165081e-01 +2.19639853e-01 -2.11412221e-01 -7.65204489e-01 +2.51675397e-01 +1.78259060e-01 +1.30188078e-01 -3.26503515e-01 -1.06600666e+00 +1.28096789e-01 +3.00485551e-01 -8.10327195e-03 -3.23357321e-02 -1.83432903e-02 +4.54246402e-02 -8.22608918e-02 +9.73474756e-02 -4.10162322e-02 +2.72608459e-01 +3.10627252e-01 +1.56037897e-01 +2.09555775e-01 +2.90887326e-01 -6.91221803e-02 -1.01692595e-01 +2.60335386e-01 +5.15037216e-02 -8.20437744e-02 -2.50378162e-01 +4.58656430e-01 -1.39314219e-01 +3.03339392e-01 +2.70335376e-01 +8.04469660e-02 -2.75385112e-01 -2.02296495e-01 +3.16830158e-01 +3.77083778e-01 -5.71410693e-02 -2.33180046e-01 -3.74777675e-01 +1.21640995e-01 -3.78206372e-01 -1.56496614e-01 +1.89133182e-01 -2.30916247e-01 +3.28803718e-01 +4.68620270e-01 +3.25045228e-01 -7.28920460e-01 +2.17924207e-01 -2.33498551e-02 +2.98834890e-02 +4.78437752e-01 -1.97637249e-02 +3.23821038e-01 +4.30088751e-02 -2.49728978e-01 -3.84593457e-01 -2.90461630e-01 -1.10865347e-01 +4.24946576e-01 -4.96319085e-01 +3.93113084e-02 +6.38704479e-01 +3.93485099e-01 -2.28582695e-01 +9.77852121e-02 -2.74116397e-01 +1.28336728e-01 +1.49752736e-01 -4.50324416e-01 +4.50874753e-02 -4.06271785e-01 +3.38551581e-01 +7.58133829e-02 -5.18303156e-01 +6.81114197e-01 +2.12481618e-01 -5.87499797e-01 -3.92135000e-03 -1.04134955e-01 -3.16446126e-01 +2.87693918e-01 +2.48591810e-01 -1.63654938e-01 -3.18963021e-01 -1.42131031e-01 -5.32106280e-01 -2.99516588e-01 -3.79611343e-01 +2.10446566e-01 -3.38529706e-01 -7.99995422e-01 +5.51402390e-01 +4.72809851e-01 -1.59487069e-01 -1.59536358e-02 +4.33620274e-01 -5.78064084e-01 -9.83332396e-02 -1.74470171e-01 +2.33601825e-03 -2.06051290e-01 +4.37369086e-02 -2.07522035e-01 -2.21466810e-01 +7.02867866e-01 +3.14808071e-01 -4.89452273e-01 -3.34702656e-02 +2.09519416e-01 +4.91405576e-02 +9.66519192e-02 -3.46327350e-02 -4.11481023e-01 -5.72776496e-02 -3.63483070e-03 -5.68431258e-01 +1.60130978e-01 +4.57823843e-01 +2.74323940e-01 +2.24224836e-01 -1.93674311e-01 -1.93964109e-01 -5.33401728e-01 +7.14850485e-01 -9.46159959e-02 -1.02194816e-01 -1.85418222e-02 +5.98192394e-01 +4.48879421e-01 -4.76493806e-01 +9.79737714e-02 +3.08523583e-03 +3.23115677e-01 +1.50135368e-01 +2.18257055e-01 +7.40889251e-01 -7.71836117e-02 +2.68818736e-01 +1.10678184e+00 -6.42981052e-01 +3.40940028e-01 +4.31504250e-01 +7.18012393e-01 -1.06202513e-01 +1.95231274e-01 +8.85802984e-01 +9.77205262e-02 -7.69019797e-02 +2.23938525e-01 +3.65420640e-01 -9.22570284e-03 +1.35486843e-02 +2.66095787e-01 -7.58379474e-02 -3.94717336e-01 +3.46686035e-01 -1.87226504e-01 -2.59513289e-01 -3.75112630e-02 +2.47618884e-01 +6.25279993e-02 -5.43025970e-01 -1.45834938e-01 +8.80836546e-01 +3.39654148e-01 +2.84147173e-01 +7.72564054e-01 -1.03505477e-01 +5.13064206e-01 +6.87230349e-01 +3.19844842e-01 -4.64303732e-01 -4.89099056e-01 +3.97485435e-01 -2.81217285e-02 -8.94016325e-02 +3.57545644e-01 -7.49735117e-01 -9.77007970e-02 +2.19949231e-01 -2.94131160e-01 +1.29237667e-01 +7.30587423e-01 +2.02664450e-01 +3.05395424e-01 +1.42774537e-01 +4.65669751e-01 +2.79549390e-01 +2.72731125e-01 +4.09237808e-03 -5.73408157e-02 -3.40587616e-01 -8.29789877e-01 -1.51182860e-01 +2.17586264e-01 -1.48315847e-01 -1.55776739e-01 -5.25649846e-01 +2.55300879e-01 -3.91191214e-01 +3.10233414e-01 +6.13860376e-02 +5.27907014e-01 +1.91460758e-01 -3.52994680e-01 +3.62168640e-01 -2.46909901e-01 -6.20873719e-02 +2.99664959e-02 -1.98194794e-02 -2.28282027e-02 -2.89637744e-02 +3.71016771e-01 -2.40752354e-01 -1.28636956e-01 -2.58880585e-01 +2.71909505e-01 -5.39881773e-02 -1.59472264e-02 +6.57218516e-01 +3.86434197e-01 -6.62490800e-02 +6.00676954e-01 -2.56482184e-01 +2.25101531e-01 -9.54473615e-02 +1.10296339e-01 -1.31796494e-01 +6.77202940e-01 -1.30361855e-01 +4.82458621e-01 -1.50347427e-01 +3.34620774e-01 -1.46357536e-01 -3.56128186e-01 +5.49245358e-01 +5.35465121e-01 +7.34169662e-01 +3.15188646e-01 -7.32042789e-02 -6.31371215e-02 +3.42256762e-02 +1.82216838e-01 -7.18233362e-02 +1.61040127e-01 +1.83841690e-01 -5.77354193e-01 +1.65208615e-02 -3.50742191e-01 +2.13791534e-01 +3.47035646e-01 +5.67282364e-02 -7.06526563e-02 +6.74984574e-01 +1.08482083e-02 +2.57347584e-01 +3.23456049e-01 -5.61563432e-01 -7.04395652e-01 +6.18245780e-01 +5.72551601e-02 +4.16204870e-01 +4.21722114e-01 -1.01552479e-01 +1.38921633e-01 +3.86557847e-01 +4.10309225e-01 -2.55552620e-01 +1.62915707e-01 +3.25531960e-01 +4.87629831e-01 -6.86355948e-01 +1.55159026e-01 -1.83619544e-01 +1.05604477e-01 +1.60053432e-01 +3.67659658e-01 +3.86628062e-01 -2.45060265e-01 +1.91418722e-01 -3.88173312e-01 +2.48771682e-01 +3.51409495e-01 +2.80255601e-02 -5.33048451e-01 -2.97996759e-01 +3.34683657e-02 +3.67566407e-01 +3.39928195e-02 -7.26866245e-01 -1.14564419e-01 +1.67689294e-01 -2.02861592e-01 +2.74834305e-01 +7.36902833e-01 -1.89587831e-01 +1.42769560e-01 +8.75708282e-01 -7.06932172e-02 -6.28249288e-01 +1.72728404e-01 -6.36376441e-04 -6.85669333e-02 -4.33981031e-01 -1.99355215e-01 -1.15119316e-01 -4.92133796e-01 +1.88685611e-01 -4.25072879e-01 -5.07181048e-01 +2.52003878e-01 -2.97654927e-01 +3.18587422e-01 -2.23448962e-01 +5.61385930e-01 +3.27105135e-01 +4.65085208e-01 -6.84575200e-01 -2.98319429e-01 -2.63601691e-01 +6.14574790e-01 -8.10907036e-02 +2.36883745e-01 +2.43988082e-01 +2.76149809e-01 +6.00946061e-02 -2.26706173e-02 -3.46819967e-01 -1.61359832e-01 -3.04248124e-01 -5.37197888e-01 -5.74689746e-01 +6.93683177e-02 -1.46102086e-01 -3.65930289e-01 -5.12304120e-02 -4.61436063e-01 -2.19291002e-01 +4.68494624e-01 +4.74145174e-01 -2.77288139e-01 +1.64738417e-01 -5.65784216e-01 +7.70263001e-02 +2.42890850e-01 +2.85509646e-01 -1.10171564e-01 -8.29911053e-01 -4.71776932e-01 -1.78984851e-01 +1.59017131e-01 +3.50966215e-01 -9.41910408e-03 +2.03765288e-01 +1.21735200e-01 -4.69797760e-01 +2.28261635e-01 +3.67392182e-01 +1.92874670e-02 -3.81862894e-02 -4.12090927e-01 +4.14554179e-01 -5.90438724e-01 -3.92167896e-01 +1.45380735e-01 -2.10051283e-01 +2.69394219e-01 -4.14445937e-01 -2.26165399e-01 -2.51880825e-01 -2.23061293e-01 +1.14017889e-01 -1.32193103e-01 +8.79491791e-02 +7.57821873e-02 +1.77577138e-01 +5.92635989e-01 +3.90633494e-01 +9.98047441e-02 +1.30457595e-01 -5.60094416e-01 -1.17581911e-01 +2.03421161e-01 -2.30275869e-01 -1.27552420e-01 -5.67421317e-01 -4.20954436e-01 -5.18663377e-02 +1.24470510e-01 -8.72995332e-02 -1.63434103e-01 +4.82998610e-01 -1.06138520e-01 +2.14522272e-01 -4.10495192e-01 -4.40161824e-01 -3.96814585e-01 -1.76024660e-01 +1.86181754e-01 -4.23474967e-01 -4.76961359e-02 -4.60798502e-01 +4.63186413e-01 -5.15741587e-01 -2.65000463e-01 +1.74592435e-01 -1.36367470e-01 +5.74695170e-01 +1.43175170e-01 -1.29267156e-01 +5.53177178e-01 -2.64440089e-01 -1.06005985e-02 -4.89538580e-01 -3.11571836e-01 -3.03499103e-01 +2.60932297e-01 -1.28513714e-02 -3.39907974e-01 -2.82591760e-01 +1.44356675e-02 -2.54326053e-02 -4.35426444e-01 -5.37042975e-01 -6.11803047e-02 -4.27922487e-01 +8.54399204e-02 +6.76071346e-02 +1.71640128e-01 -6.61761761e-01 +8.69507194e-01 +4.44119245e-01 +2.21961990e-01 -2.75672823e-01 +8.51381049e-02 -3.60138267e-02 -1.84055433e-01 +1.78663693e-02 -2.60897249e-01 +5.72696507e-01 -4.37696204e-02 +1.36948273e-01 -3.78599726e-02 +8.72491300e-02 +5.19902408e-01 +3.48624110e-01 +9.65851545e-02 +3.52699965e-01 +1.16267942e-01 +4.28215832e-01 -2.59989500e-01 +5.40581644e-01 -7.63710141e-02 -2.24467218e-01 +3.72408926e-01 +2.18031302e-01 +1.88903660e-01 -5.93008995e-01 -1.22276612e-01 -1.56223580e-01 +1.61128581e-01 +1.24268912e-01 +1.29731700e-01 +1.80598274e-01 -1.19885452e-01 -3.21676344e-01 -4.17373329e-01 +7.98919082e-01 -9.21182632e-02 -2.84806942e-03 +1.21721782e-01 -1.94962740e-01 +4.44075376e-01 +1.35672344e-02 -5.31503797e-01 -9.24556330e-03 +1.10184543e-01 +4.00053747e-02 -2.30416358e-01 +1.03579044e+00 -7.01423958e-02 +1.53946802e-01 +6.68060929e-02 -2.89535969e-01 +3.06810021e-01 -1.13060325e-01 +2.94203788e-01 +3.23348902e-02 +6.26302719e-01 -1.84473559e-01 -6.08295202e-01 +1.07446402e-01 +5.03244698e-01 +1.39169684e-02 -2.09447909e-02 -3.45248252e-01 -1.92174390e-01 -4.30276632e-01 -5.57936370e-01 +4.61728796e-02 -8.95592198e-02 -4.77930084e-02 -2.42342979e-01 +4.29778486e-01 -4.95309904e-02 +7.68619776e-01 +5.21691628e-02 -2.81550646e-01 +1.92779049e-01 -9.33129154e-03 +1.94462448e-01 -2.57168204e-01 -7.92251155e-02 -2.62813359e-01 -5.02374351e-01 -6.32685274e-02 -8.92452955e-01 +2.54708618e-01 +7.62842447e-02 -4.26873803e-01 +5.38682044e-01 -2.20412672e-01 -1.75518185e-01 +5.22490405e-02 +8.12751651e-01 -1.42793983e-01 +2.84595460e-01 -1.85135663e-01 -7.97966793e-02 -6.22468650e-01 -5.85451663e-01 +8.67855430e-01 -1.66840270e-01 +3.12557042e-01 +2.02871382e-01 +3.06642026e-01 +4.90058698e-02 +5.31834781e-01 -3.88776183e-01 +1.01168631e-02 -2.43535206e-01 -4.17150408e-01 -1.25196472e-01 -5.78509942e-02 +6.21118657e-02 +3.48331600e-01 -1.19903803e-01 -8.72523710e-02 -1.69316620e-01 -8.31025317e-02 +1.95511756e-03 +1.50035501e-01 +8.12749386e-01 -7.13022768e-01 +3.49313468e-01 -2.24674344e-01 -1.57159537e-01 -7.18364596e-01 +1.19282022e-01 +3.29092592e-02 +2.78128803e-01 -9.10213441e-02 -9.06917974e-02 +2.00156838e-01 -4.14522111e-01 +4.47966486e-01 -1.84120834e-01 +5.86395562e-01 -2.55386353e-01 +5.33878028e-01 -1.64257698e-02 -3.26991349e-01 -3.31421524e-01 -5.06708808e-02 -2.93946922e-01 +4.13278282e-01 +1.33444741e-01 -3.67119849e-01 -4.69642924e-03 -3.01964968e-01 +1.41751230e-01 -8.62445086e-02 +7.08093226e-01 -3.38747293e-01 -1.62030861e-01 +4.00139034e-01 +7.21646190e-01 -2.91309088e-01 +6.04413152e-01 +1.85992196e-02 +1.00289237e+00 -4.91647780e-01 +6.31165266e-01 +7.22506583e-01 -3.32389414e-01 -5.18453717e-01 +3.67420703e-01 +1.11118563e-01 -6.08055182e-02 -3.93229239e-02 +2.25570410e-01 -3.71707171e-01 -2.19147146e-01 +4.79791135e-01 -4.03665513e-01 +1.20220944e-01 +4.09815758e-01 -5.49118578e-01 +1.52365668e-02 -7.19048157e-02 +6.82840526e-01 +5.88839531e-01 -9.47005451e-02 +1.31844446e-01 +7.51035213e-02 -8.10530931e-02 +9.58494484e-01 -3.64485800e-01 -1.72933862e-01 +5.49252868e-01 +5.68778105e-02 -2.95188159e-01 +1.29621476e-01 +1.71860665e-01 +6.56726599e-01 +4.89332139e-01 +1.29631516e-02 +3.19611311e-01 -2.07839176e-01 +1.61792591e-01 -4.30938974e-02 -6.76975325e-02 -3.88097137e-01 -4.77214277e-01 +2.84656622e-02 +1.24987438e-01 +1.03534341e+00 -1.75403610e-01 -1.74161166e-01 +8.72142613e-02 +2.53340334e-01 -5.02036046e-03 -3.26414943e-01 +2.57454932e-01 +2.65707970e-01 -1.72243923e-01 +2.20141008e-01 +2.02371906e-02 +4.79822189e-01 +5.21518998e-02 +4.63571459e-01 +2.49275386e-01 +1.18758142e-01 -3.34018804e-02 +4.55920964e-01 -7.06743836e-01 +3.50995332e-01 +1.21867858e-01 -3.32972527e-01 -7.83438459e-02 -4.29040566e-02 -1.37595326e-01 -2.22354293e-01 +2.12046131e-01 +6.06986992e-02 +1.59023032e-01 -6.30464256e-01 +8.38536695e-02 +7.67857879e-02 +3.62111449e-01 +3.30459885e-02 -5.21657653e-02 -3.26157629e-01 -5.56593873e-02 +7.22442865e-01 +5.56434214e-01 -1.31244704e-01 +4.66304570e-01 +6.64178073e-01 +4.98646110e-01 -1.35554641e-01 +1.33276373e-01 +2.67114401e-01 +4.21714395e-01 -1.31228447e-01 +3.07174116e-01 -2.89895892e-01 +3.69012207e-01 -6.58053905e-02 -1.15781598e-01 -7.28202522e-01 +2.36007839e-01 +5.67172505e-02 +1.23958379e-01 -3.62985253e-01 -1.16731703e-01 +3.92083498e-03 -3.13292980e-01 -1.45653591e-01 -2.39778161e-01 +4.17185873e-02 -1.36267126e-01 +3.83434802e-01 -4.04356152e-01 -1.51136637e-01 -6.52902365e-01 -3.30294758e-01 -4.00063276e-01 -1.25520095e-01 -5.16877234e-01 -1.28877059e-01 +5.24920523e-01 +4.61357236e-01 +5.27954161e-01 +5.35711884e-01 +1.47831813e-01 +6.69108450e-01 -1.24072939e-01 -3.81483793e-01 +5.16036212e-01 +9.03424472e-02 +5.99070668e-01 +1.94546074e-01 +9.99887362e-02 +2.26237494e-02 +1.13926327e+00 +2.85642266e-01 -3.84969652e-01 +1.56556606e-01 +2.41261765e-01 +1.19024679e-01 +3.20871323e-01 +3.84514518e-02 +2.33153328e-01 -2.19994321e-01 +8.59715492e-02 +5.97188361e-02 +1.39797881e-01 +8.35363984e-01 -3.89357984e-01 -4.93130773e-01 +4.37998861e-01 +2.14506805e-01 -1.43521726e-01 -1.19601458e-01 +7.71888942e-02 -2.14934379e-01 -1.55051649e-01 +7.34566987e-01 +4.37540978e-01 +7.78105631e-02 +5.24021804e-01 -9.89316590e-03 +2.95493335e-01 -1.33357167e-01 +7.37053394e-01 +6.19860403e-02 -6.69268444e-02 -1.26421139e-01 -2.28195578e-01 +2.83332258e-01 +2.54364282e-01 -6.38370775e-03 -1.20358372e+00 +7.93509558e-02 +2.38050446e-01 +1.50572956e-01 -2.37878352e-01 +3.49644572e-01 -1.76644418e-02 -1.65679045e-02 +2.82134235e-01 -4.75550860e-01 +5.46700001e-01 +2.99162358e-01 +4.17358786e-01 +4.25626189e-01 +5.62718809e-01 +1.57354712e-01 -1.85903564e-01 +5.06422222e-01 -1.30280405e-01 -8.48262161e-02 +2.09803253e-01 -7.15663210e-02 +2.55380332e-01 +1.23107634e-01 +6.41485691e-01 +5.01352131e-01 +6.52247965e-01 +3.62139672e-01 +3.03485006e-01 +1.02322139e-01 +1.92661852e-01 +1.45803452e-01 -9.94802117e-02 +1.84795603e-01 +1.37508199e-01 -2.13319972e-01 -9.38956439e-03 +1.13725662e+00 -2.02422008e-01 +6.17281556e-01 +2.46283002e-02 -2.91250527e-01 +2.79356062e-01 -4.55526233e-01 +2.77254760e-01 -1.29414499e-01 -6.80617690e-01 -1.42670810e-01 -3.15983862e-01 -1.31610751e-01 -3.58404726e-01 +6.82852805e-01 -3.16896260e-01 +1.40452817e-01 +3.02786708e-01 +2.10875779e-01 -3.25963274e-02 -3.66209179e-01 +6.57030195e-02 +3.30112159e-01 +4.26641524e-01 +2.10932165e-01 +1.43923134e-01 +1.75174251e-01 -3.19580287e-01 +2.30903521e-01 -5.56793749e-01 -4.61415023e-01 +4.74598706e-01 +3.46363842e-01 +7.37915486e-02 +1.00396670e-01 -1.89369828e-01 -2.47092217e-01 -6.92103431e-02 +3.40218157e-01 +4.73231405e-01 -1.72396243e-01 -2.07836018e-03 -9.20553565e-01 +2.99117833e-01 -3.53579372e-01 +6.11373365e-01 -3.52828354e-02 -3.17500532e-01 +1.53387249e-01 -5.48332818e-02 -2.15837732e-01 -7.26963758e-01 -1.68521866e-01 -4.37546194e-01 -1.14984877e-01 +2.61532485e-01 -6.50280356e-01 +2.05152202e-03 -1.50468454e-01 -3.39569420e-01 +6.09487414e-01 -2.34824285e-01 +2.35979602e-01 +7.04895332e-02 +8.37265074e-01 +2.80509293e-01 -6.76022395e-02 -7.99362361e-01 +3.05559039e-01 -2.20990375e-01 +1.76791742e-01 -2.38477498e-01 -3.25012654e-01 +2.06294551e-01 -1.20672993e-01 +5.19975364e-01 -9.40041617e-02 +1.20946392e-01 +8.99936482e-02 +1.98316410e-01 -3.31035584e-01 +2.63756603e-01 +3.18564922e-01 -5.43441534e-01 -1.69388428e-01 +1.85064033e-01 -2.57333308e-01 -4.37976420e-01 -2.81538051e-02 -3.52030307e-01 -2.61094123e-01 +2.49663264e-01 -3.44930664e-02 -1.75137386e-01 -2.27580115e-01 +9.58355010e-01 -2.20453441e-01 +8.75272751e-02 +1.52259648e-01 -2.27736428e-01 +5.80711424e-01 -1.81748390e-01 +7.86373258e-01 -3.04482251e-01 -2.44300231e-01 -2.41473690e-01 +5.83781973e-02 -1.08380407e-01 -2.14600429e-01 +7.52245665e-01 +4.33548212e-01 -2.03926176e-01 +6.12907350e-01 +2.72523135e-01 +3.02274466e-01 -6.11779928e-01 -3.30104768e-01 -1.33648157e-01 +5.02345040e-02 +1.79877058e-01 -6.54521644e-01 -1.98886558e-01 -3.17349248e-02 -4.00940269e-01 +1.81149065e-01 -2.46301234e-01 -9.98167247e-02 +5.22095799e-01 +1.51730195e-01 +4.59923260e-02 +4.34771091e-01 -2.94517487e-01 +4.30282235e-01 +1.55445442e-01 +1.52657956e-01 +3.48488577e-02 +3.62811714e-01 +3.19598287e-01 